{"learner":{"attributes":{"scikit_learn":"{\"_estimator_type\": \"regressor\"}"},"feature_names":["settlement_period","tsd","is_holiday","day_of_week","is_weekend","month","quarter","is_month_end","is_month_start","is_quarter_end","is_quarter_start","is_year_end","is_year_start","day_of_year","week_of_year","hour","minute","lag_1","lag_2","lag_3","lag_4","lag_5","lag_6","lag_7","lag_8","lag_9","lag_10","lag_11","lag_12","lag_13","lag_14","lag_15","lag_16","lag_17","lag_18","lag_19","lag_20","lag_21","lag_22","lag_23","lag_24","lag_25","lag_26","lag_27","lag_28","lag_29","lag_30","lag_31","lag_32","lag_33","lag_34","lag_35","lag_36","lag_37","lag_38","lag_39","lag_40","lag_41","lag_42","lag_43","lag_44","lag_45","lag_46","lag_47","lag_48"],"feature_types":["int","int","int","int","int","int","int","int","int","int","int","int","int","int","int","int","int","float","float","float","float","float","float","float","float","float","float","float","float","float","float","float","float","float","float","float","float","float","float","float","float","float","float","float","float","float","float","float","float","float","float","float","float","float","float","float","float","float","float","float","float","float","float","float","float"],"gradient_booster":{"model":{"gbtree_model_param":{"num_parallel_tree":"1","num_trees":"500"},"iteration_indptr":[0,1,2,3,4,5,6,7,8,9,10,11,12,13,14,15,16,17,18,19,20,21,22,23,24,25,26,27,28,29,30,31,32,33,34,35,36,37,38,39,40,41,42,43,44,45,46,47,48,49,50,51,52,53,54,55,56,57,58,59,60,61,62,63,64,65,66,67,68,69,70,71,72,73,74,75,76,77,78,79,80,81,82,83,84,85,86,87,88,89,90,91,92,93,94,95,96,97,98,99,100,101,102,103,104,105,106,107,108,109,110,111,112,113,114,115,116,117,118,119,120,121,122,123,124,125,126,127,128,129,130,131,132,133,134,135,136,137,138,139,140,141,142,143,144,145,146,147,148,149,150,151,152,153,154,155,156,157,158,159,160,161,162,163,164,165,166,167,168,169,170,171,172,173,174,175,176,177,178,179,180,181,182,183,184,185,186,187,188,189,190,191,192,193,194,195,196,197,198,199,200,201,202,203,204,205,206,207,208,209,210,211,212,213,214,215,216,217,218,219,220,221,222,223,224,225,226,227,228,229,230,231,232,233,234,235,236,237,238,239,240,241,242,243,244,245,246,247,248,249,250,251,252,253,254,255,256,257,258,259,260,261,262,263,264,265,266,267,268,269,270,271,272,273,274,275,276,277,278,279,280,281,282,283,284,285,286,287,288,289,290,291,292,293,294,295,296,297,298,299,300,301,302,303,304,305,306,307,308,309,310,311,312,313,314,315,316,317,318,319,320,321,322,323,324,325,326,327,328,329,330,331,332,333,334,335,336,337,338,339,340,341,342,343,344,345,346,347,348,349,350,351,352,353,354,355,356,357,358,359,360,361,362,363,364,365,366,367,368,369,370,371,372,373,374,375,376,377,378,379,380,381,382,383,384,385,386,387,388,389,390,391,392,393,394,395,396,397,398,399,400,401,402,403,404,405,406,407,408,409,410,411,412,413,414,415,416,417,418,419,420,421,422,423,424,425,426,427,428,429,430,431,432,433,434,435,436,437,438,439,440,441,442,443,444,445,446,447,448,449,450,451,452,453,454,455,456,457,458,459,460,461,462,463,464,465,466,467,468,469,470,471,472,473,474,475,476,477,478,479,480,481,482,483,484,485,486,487,488,489,490,491,492,493,494,495,496,497,498,499,500],"tree_info":[0,0,0,0,0,0,0,0,0,0,0,0,0,0,0,0,0,0,0,0,0,0,0,0,0,0,0,0,0,0,0,0,0,0,0,0,0,0,0,0,0,0,0,0,0,0,0,0,0,0,0,0,0,0,0,0,0,0,0,0,0,0,0,0,0,0,0,0,0,0,0,0,0,0,0,0,0,0,0,0,0,0,0,0,0,0,0,0,0,0,0,0,0,0,0,0,0,0,0,0,0,0,0,0,0,0,0,0,0,0,0,0,0,0,0,0,0,0,0,0,0,0,0,0,0,0,0,0,0,0,0,0,0,0,0,0,0,0,0,0,0,0,0,0,0,0,0,0,0,0,0,0,0,0,0,0,0,0,0,0,0,0,0,0,0,0,0,0,0,0,0,0,0,0,0,0,0,0,0,0,0,0,0,0,0,0,0,0,0,0,0,0,0,0,0,0,0,0,0,0,0,0,0,0,0,0,0,0,0,0,0,0,0,0,0,0,0,0,0,0,0,0,0,0,0,0,0,0,0,0,0,0,0,0,0,0,0,0,0,0,0,0,0,0,0,0,0,0,0,0,0,0,0,0,0,0,0,0,0,0,0,0,0,0,0,0,0,0,0,0,0,0,0,0,0,0,0,0,0,0,0,0,0,0,0,0,0,0,0,0,0,0,0,0,0,0,0,0,0,0,0,0,0,0,0,0,0,0,0,0,0,0,0,0,0,0,0,0,0,0,0,0,0,0,0,0,0,0,0,0,0,0,0,0,0,0,0,0,0,0,0,0,0,0,0,0,0,0,0,0,0,0,0,0,0,0,0,0,0,0,0,0,0,0,0,0,0,0,0,0,0,0,0,0,0,0,0,0,0,0,0,0,0,0,0,0,0,0,0,0,0,0,0,0,0,0,0,0,0,0,0,0,0,0,0,0,0,0,0,0,0,0,0,0,0,0,0,0,0,0,0,0,0,0,0,0,0,0,0,0,0,0,0,0,0,0,0,0,0,0,0,0,0,0,0,0,0,0,0,0,0,0,0,0,0,0,0,0,0,0,0,0,0,0,0,0,0,0,0,0,0,0,0,0,0,0,0,0,0,0,0,0,0,0,0,0,0,0,0,0,0,0,0,0,0,0,0,0,0,0],"trees":[{"base_weights":[1.919018E0,-5.1608145E3,6.622027E3,-8.456928E3,-2.1910295E3,4.00773E3,1.1915079E4,-1.0620139E4,-7.0296973E3,-3.0629949E3,2.2528164E3,2.5297825E3,5.987343E3,1.0165218E4,1.6051655E4,-1.1203233E4,-8.583927E3,-7.7389834E3,-3.9225134E3,-4.4963384E3,-1.6362025E3,-1.8512868E2,4.7992607E3,1.8604744E3,7.9223765E3,5.535172E3,1.1901134E4,9.733043E3,1.6302854E4,1.4915362E4,1.9093338E4,-1.238896E4,-1.0299345E4,-1.0774773E4,-5.9022036E3,-8.610532E3,-6.9159067E3,-1.8351548E3,-6.976287E3,-3.7563777E3,-5.717602E3,-8.9793243E2,-2.883611E3,-3.7326418E3,7.356991E2,3.8418406E3,8.061273E3,2.7316616E3,1.190678E2,6.573629E3,9.972934E3,6.381403E3,3.069291E3,1.1171728E4,1.3440375E4,1.0589011E4,7.0290815E3,1.527667E4,9.033179E2,1.5518872E4,1.255634E4,1.9665865E4,1.5209094E4,-6.5639325E2,-5.976639E2,-4.5749902E2,-5.269422E2,-4.155886E2,-5.592508E2,-3.9688263E2,-2.1450987E2,-3.997518E2,-4.765291E2,-3.1294193E2,-3.9256375E2,-1.632852E2,6.863127E1,-4.0871964E2,-2.9496152E2,-2.2547063E2,-1.550839E2,-3.2474045E2,-2.3756636E2,-5.3687305E1,1.5836095E2,-2.1194212E2,-9.0992195E1,-2.1731363E2,-1.3332109E2,-4.0973843E1,9.835335E1,-2.0355124E1,2.2444926E2,3.4845746E2,5.563146E2,7.835395E1,1.8869737E2,-6.346316E1,8.858741E1,1.08332756E2,3.449892E2,5.2015094E2,2.183693E2,2.8470816E2,3.672652E2,7.710686E1,3.0630917E2,4.9528537E2,5.973821E2,6.3679706E2,8.2321185E2,4.660008E2,5.9926654E2,2.8390646E2,5.203694E2,7.2921234E2,8.5649023E2,7.207791E2,8.292954E2,5.152185E2,9.099798E2,9.3392444E2,1.0753342E3,6.406164E2,8.467803E2],"categories":[],"categories_nodes":[],"categories_segments":[],"categories_sizes":[],"default_left":[0,0,0,0,0,0,0,0,0,0,0,0,0,0,0,0,0,0,0,0,0,0,0,0,0,0,0,0,0,0,0,0,0,0,0,0,0,0,0,0,0,0,0,0,0,0,0,0,0,0,0,0,0,0,0,0,0,0,0,0,0,0,0,0,0,0,0,0,0,0,0,0,0,0,0,0,0,0,0,0,0,0,0,0,0,0,0,0,0,0,0,0,0,0,0,0,0,0,0,0,0,0,0,0,0,0,0,0,0,0,0,0,0,0,0,0,0,0,0,0,0,0,0,0,0],"id":0,"left_children":[1,3,5,7,9,11,13,15,17,19,21,23,25,27,29,31,33,35,37,39,41,43,45,47,49,51,53,55,57,59,61,63,65,67,69,71,73,75,77,79,81,83,85,87,89,91,93,95,97,99,101,103,105,107,109,111,113,115,-1,117,119,121,123,-1,-1,-1,-1,-1,-1,-1,-1,-1,-1,-1,-1,-1,-1,-1,-1,-1,-1,-1,-1,-1,-1,-1,-1,-1,-1,-1,-1,-1,-1,-1,-1,-1,-1,-1,-1,-1,-1,-1,-1,-1,-1,-1,-1,-1,-1,-1,-1,-1,-1,-1,-1,-1,-1,-1,-1,-1,-1,-1,-1,-1,-1],"loss_changes":[6.090528E12,9.8004055E11,1.0803927E12,1.4643154E11,2.0409298E11,1.5290578E11,1.8669004E11,2.2297575E10,6.298534E10,9.003768E10,5.3638803E10,1.08001E11,5.967492E10,4.796619E10,2.623144E10,1.5583412E10,2.4630067E10,1.6638935E10,3.3873093E10,1.9827098E10,2.031945E10,1.4425E10,1.3167321E10,4.0390705E10,9.07228E9,4.3292033E10,1.6305029E9,3.9161037E10,1.8811453E9,7.7636567E9,4.333175E9,1.8827837E9,2.1949317E9,2.2431498E9,6.1738967E9,6.323962E9,7.311917E9,1.4500781E10,2.736513E9,6.7304325E9,6.1911204E9,9.91213E9,1.1819586E10,5.837916E8,6.7155794E9,8.990536E9,3.1292498E9,2.153468E10,2.0374823E10,2.8540027E9,3.110396E9,1.0194059E10,2.475613E10,9.445212E8,8.660173E8,2.2699966E10,1.8557174E10,7.253688E8,0E0,4.9960714E9,1.4350909E10,2.891776E9,9.085665E8,0E0,0E0,0E0,0E0,0E0,0E0,0E0,0E0,0E0,0E0,0E0,0E0,0E0,0E0,0E0,0E0,0E0,0E0,0E0,0E0,0E0,0E0,0E0,0E0,0E0,0E0,0E0,0E0,0E0,0E0,0E0,0E0,0E0,0E0,0E0,0E0,0E0,0E0,0E0,0E0,0E0,0E0,0E0,0E0,0E0,0E0,0E0,0E0,0E0,0E0,0E0,0E0,0E0,0E0,0E0,0E0,0E0,0E0,0E0,0E0,0E0,0E0],"parents":[2147483647,0,0,1,1,2,2,3,3,4,4,5,5,6,6,7,7,8,8,9,9,10,10,11,11,12,12,13,13,14,14,15,15,16,16,17,17,18,18,19,19,20,20,21,21,22,22,23,23,24,24,25,25,26,26,27,27,28,28,29,29,30,30,31,31,32,32,33,33,34,34,35,35,36,36,37,37,38,38,39,39,40,40,41,41,42,42,43,43,44,44,45,45,46,46,47,47,48,48,49,49,50,50,51,51,52,52,53,53,54,54,55,55,56,56,57,57,59,59,60,60,61,61,62,62],"right_children":[2,4,6,8,10,12,14,16,18,20,22,24,26,28,30,32,34,36,38,40,42,44,46,48,50,52,54,56,58,60,62,64,66,68,70,72,74,76,78,80,82,84,86,88,90,92,94,96,98,100,102,104,106,108,110,112,114,116,-1,118,120,122,124,-1,-1,-1,-1,-1,-1,-1,-1,-1,-1,-1,-1,-1,-1,-1,-1,-1,-1,-1,-1,-1,-1,-1,-1,-1,-1,-1,-1,-1,-1,-1,-1,-1,-1,-1,-1,-1,-1,-1,-1,-1,-1,-1,-1,-1,-1,-1,-1,-1,-1,-1,-1,-1,-1,-1,-1,-1,-1,-1,-1,-1,-1],"split_conditions":[3.4301E4,2.7932E4,4.2245E4,2.4128E4,6E0,3.87E4,4.7826E4,1.4E1,6E0,3.119E4,3.1828E4,6E0,6E0,6E0,5.2061E4,2.2056E4,6E0,2.6023E4,3.0193E4,4E0,4E0,1.3E1,3.5472E4,4E0,3.6945E4,4E0,4.0924E4,4E0,4.4941E4,4E0,4E0,2.0627E4,1E0,1E0,2.3906E4,4E0,4E0,2.8836E4,2.5841E4,2.9522E4,2.9857E4,1E0,5E0,2.9857E4,2.9608E4,1.4E1,4.4528E4,3.6416E4,5E0,1.3E1,4.1957E4,4.0595E4,5E0,3.9786E4,4.6333E4,4.4735E4,5E0,4.2252E4,9.033179E2,4.9597E4,5E0,5.4255E4,3.4E1,-6.5639325E2,-5.976639E2,-4.5749902E2,-5.269422E2,-4.155886E2,-5.592508E2,-3.9688263E2,-2.1450987E2,-3.997518E2,-4.765291E2,-3.1294193E2,-3.9256375E2,-1.632852E2,6.863127E1,-4.0871964E2,-2.9496152E2,-2.2547063E2,-1.550839E2,-3.2474045E2,-2.3756636E2,-5.3687305E1,1.5836095E2,-2.1194212E2,-9.0992195E1,-2.1731363E2,-1.3332109E2,-4.0973843E1,9.835335E1,-2.0355124E1,2.2444926E2,3.4845746E2,5.563146E2,7.835395E1,1.8869737E2,-6.346316E1,8.858741E1,1.08332756E2,3.449892E2,5.2015094E2,2.183693E2,2.8470816E2,3.672652E2,7.710686E1,3.0630917E2,4.9528537E2,5.973821E2,6.3679706E2,8.2321185E2,4.660008E2,5.9926654E2,2.8390646E2,5.203694E2,7.2921234E2,8.5649023E2,7.207791E2,8.292954E2,5.152185E2,9.099798E2,9.3392444E2,1.0753342E3,6.406164E2,8.467803E2],"split_indices":[1,1,1,1,3,1,1,0,3,1,62,3,3,3,1,1,3,1,29,3,3,0,62,3,62,3,62,3,1,3,3,1,3,3,63,3,3,63,1,1,17,2,3,1,63,0,45,1,3,0,32,1,3,1,48,1,3,54,0,1,3,1,0,0,0,0,0,0,0,0,0,0,0,0,0,0,0,0,0,0,0,0,0,0,0,0,0,0,0,0,0,0,0,0,0,0,0,0,0,0,0,0,0,0,0,0,0,0,0,0,0,0,0,0,0,0,0,0,0,0,0,0,0,0,0],"split_type":[0,0,0,0,0,0,0,0,0,0,0,0,0,0,0,0,0,0,0,0,0,0,0,0,0,0,0,0,0,0,0,0,0,0,0,0,0,0,0,0,0,0,0,0,0,0,0,0,0,0,0,0,0,0,0,0,0,0,0,0,0,0,0,0,0,0,0,0,0,0,0,0,0,0,0,0,0,0,0,0,0,0,0,0,0,0,0,0,0,0,0,0,0,0,0,0,0,0,0,0,0,0,0,0,0,0,0,0,0,0,0,0,0,0,0,0,0,0,0,0,0,0,0,0,0],"sum_hessian":[1.78199E5,1.0012E5,7.8079E4,4.7452E4,5.2668E4,5.2266E4,2.5813E4,1.886E4,2.8592E4,4.4029E4,8.639E3,2.9926E4,2.234E4,1.8142E4,7.671E3,1.4658E4,4.202E3,2.3277E4,5.315E3,2.1963E4,2.2066E4,4.414E3,4.225E3,2.6623E4,3.303E3,2.0755E4,1.585E3,1.6951E4,1.191E3,5.589E3,2.082E3,6.335E3,8.323E3,2.311E3,1.891E3,1.1301E4,1.1976E4,3.158E3,2.157E3,1.3679E4,8.284E3,1.3863E4,8.203E3,9.09E2,3.505E3,3.268E3,9.57E2,1.7745E4,8.878E3,1.995E3,1.308E3,1.5451E4,5.304E3,1.081E3,5.04E2,1.2873E4,4.078E3,7.59E2,4.32E2,4.446E3,1.143E3,1.811E3,2.71E2,2.339E3,3.996E3,1.442E3,6.881E3,3.33E2,1.978E3,8.34E2,1.057E3,6.777E3,4.524E3,7.039E3,4.937E3,2.184E3,9.74E2,1.018E3,1.139E3,6.359E3,7.32E3,4.588E3,3.696E3,1.3289E4,5.74E2,3.606E3,4.597E3,5.75E2,3.34E2,1.549E3,1.956E3,4.32E2,2.836E3,7.08E2,2.49E2,8.382E3,9.363E3,4.825E3,4.053E3,1.38E2,1.857E3,1.214E3,9.4E1,9.024E3,6.427E3,3.538E3,1.766E3,4.16E2,6.65E2,4.13E2,9.1E1,6.748E3,6.125E3,2.915E3,1.163E3,5.59E2,2E2,2.193E3,2.253E3,8.19E2,3.24E2,1.186E3,6.25E2,1.17E2,1.54E2],"tree_param":{"num_deleted":"0","num_feature":"65","num_nodes":"125","size_leaf_vector":"1"}},{"base_weights":[2.8240063E0,-5.0032925E3,6.1291807E3,-8.0255176E3,-2.1772214E3,3.6766873E3,1.1319965E4,-1.0208941E4,-6.76176E3,-3.593996E3,-8.7127734E2,2.003751E3,5.360408E3,9.659405E3,1.5242949E4,-1.08224375E4,-8.475431E3,-7.4375786E3,-5.599162E3,-4.313863E3,-2.9875686E3,-1.4997393E3,-1.01351135E2,1.2553241E3,2.8692273E3,4.468188E3,6.3957495E3,8.510099E3,1.0990842E4,1.3893042E4,1.7593992E4,-1.2018037E4,-1.0074878E4,-9.591298E3,-7.836516E3,-8.298836E3,-6.5952876E3,-4.8745596E3,-6.6176E3,-3.9050554E3,-4.8725474E3,-3.232186E3,-2.3136562E3,-1.0081798E3,-1.8797251E3,4.622764E2,-6.4948267E2,1.7773678E3,8.497643E2,3.6839817E3,2.6703008E3,5.306265E3,4.2010884E3,5.8796104E3,6.9128457E3,7.8365454E3,9.005055E3,1.053694E4,1.1888728E4,1.2963306E4,1.4581681E4,1.6778166E4,2.0064582E4,-6.453933E2,-5.8842456E2,-5.305221E2,-4.8126083E2,-5.464406E2,-4.394026E2,-3.6914035E2,-4.667566E2,-4.30513E2,-3.9254123E2,-3.526307E2,-3.0612686E2,-2.5886032E2,-3.887666E1,-3.8679343E2,-2.9850256E2,-6.4390816E1,-2.0465953E2,-2.5907553E2,-2.2299072E2,-1.2545725E2,-1.7718303E2,-7.262706E1,-1.5000664E2,4.1253044E1,-5.887698E1,-9.0452194E1,-2.2584818E2,1.3773369E2,1.6710812E1,-2.6942686E1,-1.3475435E2,1.8021635E2,7.852664E1,-1.0069485E1,5.3675808E1,2.3475476E2,1.4718446E2,1.1468223E2,1.7498703E2,2.974953E2,2.1171924E2,2.4826656E2,1.9132428E2,3.2462628E2,2.7619604E2,3.5793063E2,3.0930185E2,4.1749313E2,3.668204E2,4.7608554E2,4.1890402E2,5.571567E2,4.9880133E2,6.251909E2,5.592071E2,6.7098157E2,6.098361E2,7.539938E2,6.98925E2,8.1765643E2,8.7985803E2,1.0044294E3,3.9515625E2],"categories":[],"categories_nodes":[],"categories_segments":[],"categories_sizes":[],"default_left":[0,0,0,0,0,0,0,0,0,0,0,0,0,0,0,0,0,0,0,0,0,0,0,0,0,0,0,0,0,0,0,0,0,0,0,0,0,0,0,0,0,0,0,0,0,0,0,0,0,0,0,0,0,0,0,0,0,0,0,0,0,0,0,0,0,0,0,0,0,0,0,0,0,0,0,0,0,0,0,0,0,0,0,0,0,0,0,0,0,0,0,0,0,0,0,0,0,0,0,0,0,0,0,0,0,0,0,0,0,0,0,0,0,0,0,0,0,0,0,0,0,0,0,0,0,0,0],"id":1,"left_children":[1,3,5,7,9,11,13,15,17,19,21,23,25,27,29,31,33,35,37,39,41,43,45,47,49,51,53,55,57,59,61,63,65,67,69,71,73,75,77,79,81,83,85,87,89,91,93,95,97,99,101,103,105,107,109,111,113,115,117,119,121,123,125,-1,-1,-1,-1,-1,-1,-1,-1,-1,-1,-1,-1,-1,-1,-1,-1,-1,-1,-1,-1,-1,-1,-1,-1,-1,-1,-1,-1,-1,-1,-1,-1,-1,-1,-1,-1,-1,-1,-1,-1,-1,-1,-1,-1,-1,-1,-1,-1,-1,-1,-1,-1,-1,-1,-1,-1,-1,-1,-1,-1,-1,-1,-1,-1],"loss_changes":[5.4637583E12,8.3733565E11,1.01981356E12,1.3065362E11,9.373866E10,1.5324348E11,1.6730397E11,1.837708E10,2.3537385E10,1.0595664E10,1.2757064E10,1.7675321E10,2.5019875E10,2.754701E10,2.4012128E10,1.1339825E10,3.1644385E9,1.3710262E10,8.111915E9,2.5182044E9,2.1673984E9,2.7094815E9,3.661263E9,3.097645E9,2.0414054E9,3.2387236E9,3.3086177E9,3.1628984E9,3.2839434E9,2.922578E9,5.2747305E9,9.424077E8,1.7993564E9,1.6766403E9,1.8995118E9,1.2407931E9,2.0319109E9,7.9961293E9,3.2739492E9,3.1558943E9,5.749637E8,2.170454E9,2.0746629E9,1.9666017E9,1.5177257E9,1.7143782E9,1.3581763E9,2.4123863E9,1.9382446E9,1.8432573E9,3.1710904E9,2.4012145E9,3.1450563E9,1.3347553E9,1.0744627E9,9.954427E8,1.729069E9,1.7811374E9,1.0740367E9,5.6285594E8,6.2580326E8,4.428923E8,4.148429E7,0E0,0E0,0E0,0E0,0E0,0E0,0E0,0E0,0E0,0E0,0E0,0E0,0E0,0E0,0E0,0E0,0E0,0E0,0E0,0E0,0E0,0E0,0E0,0E0,0E0,0E0,0E0,0E0,0E0,0E0,0E0,0E0,0E0,0E0,0E0,0E0,0E0,0E0,0E0,0E0,0E0,0E0,0E0,0E0,0E0,0E0,0E0,0E0,0E0,0E0,0E0,0E0,0E0,0E0,0E0,0E0,0E0,0E0,0E0,0E0,0E0,0E0,0E0,0E0],"parents":[2147483647,0,0,1,1,2,2,3,3,4,4,5,5,6,6,7,7,8,8,9,9,10,10,11,11,12,12,13,13,14,14,15,15,16,16,17,17,18,18,19,19,20,20,21,21,22,22,23,23,24,24,25,25,26,26,27,27,28,28,29,29,30,30,31,31,32,32,33,33,34,34,35,35,36,36,37,37,38,38,39,39,40,40,41,41,42,42,43,43,44,44,45,45,46,46,47,47,48,48,49,49,50,50,51,51,52,52,53,53,54,54,55,55,56,56,57,57,58,58,59,59,60,60,61,61,62,62],"right_children":[2,4,6,8,10,12,14,16,18,20,22,24,26,28,30,32,34,36,38,40,42,44,46,48,50,52,54,56,58,60,62,64,66,68,70,72,74,76,78,80,82,84,86,88,90,92,94,96,98,100,102,104,106,108,110,112,114,116,118,120,122,124,126,-1,-1,-1,-1,-1,-1,-1,-1,-1,-1,-1,-1,-1,-1,-1,-1,-1,-1,-1,-1,-1,-1,-1,-1,-1,-1,-1,-1,-1,-1,-1,-1,-1,-1,-1,-1,-1,-1,-1,-1,-1,-1,-1,-1,-1,-1,-1,-1,-1,-1,-1,-1,-1,-1,-1,-1,-1,-1,-1,-1,-1,-1,-1,-1],"split_conditions":[3.4031E4,2.7932E4,4.2245E4,2.3905E4,3.0947E4,3.7982E4,4.7826E4,6E0,7E0,2.9354E4,3.2609E4,3.609E4,4.0083E4,4.4735E4,5.1349E4,2.1704E4,2.2056E4,2.5753E4,2.7661E4,3.5179E4,3.1751E4,3.0106E4,3.2053E4,3.1596E4,6.4E1,7.9E1,4.104E4,4.3228E4,4.6603E4,4.909E4,5.4255E4,1.9946E4,2.2799E4,1.53E2,2.5478E4,2.5007E4,2.6742E4,2.72E2,2.6112E4,8.2E1,2.8748E4,2.9273E4,2.9774E4,2.8197E4,3.9001E4,7.1E1,3.8905E4,7.2E1,2.7293E4,3.8803E4,2.84E2,4.0926E4,3.7884E4,3.8297E4,3.9886E4,3.9986E4,4.1164E4,4.3231E4,4.4948E4,4.8634E4,4.909E4,5.2864E4,5.2061E4,-6.453933E2,-5.8842456E2,-5.305221E2,-4.8126083E2,-5.464406E2,-4.394026E2,-3.6914035E2,-4.667566E2,-4.30513E2,-3.9254123E2,-3.526307E2,-3.0612686E2,-2.5886032E2,-3.887666E1,-3.8679343E2,-2.9850256E2,-6.4390816E1,-2.0465953E2,-2.5907553E2,-2.2299072E2,-1.2545725E2,-1.7718303E2,-7.262706E1,-1.5000664E2,4.1253044E1,-5.887698E1,-9.0452194E1,-2.2584818E2,1.3773369E2,1.6710812E1,-2.6942686E1,-1.3475435E2,1.8021635E2,7.852664E1,-1.0069485E1,5.3675808E1,2.3475476E2,1.4718446E2,1.1468223E2,1.7498703E2,2.974953E2,2.1171924E2,2.4826656E2,1.9132428E2,3.2462628E2,2.7619604E2,3.5793063E2,3.0930185E2,4.1749313E2,3.668204E2,4.7608554E2,4.1890402E2,5.571567E2,4.9880133E2,6.251909E2,5.592071E2,6.7098157E2,6.098361E2,7.539938E2,6.98925E2,8.1765643E2,8.7985803E2,1.0044294E3,3.9515625E2],"split_indices":[1,1,1,1,1,1,1,15,15,1,1,1,1,1,1,1,1,1,25,33,64,38,41,39,13,13,1,1,1,1,1,1,1,13,23,1,1,13,1,13,1,44,21,20,64,13,64,13,22,41,13,41,63,60,42,53,51,58,56,63,61,1,41,0,0,0,0,0,0,0,0,0,0,0,0,0,0,0,0,0,0,0,0,0,0,0,0,0,0,0,0,0,0,0,0,0,0,0,0,0,0,0,0,0,0,0,0,0,0,0,0,0,0,0,0,0,0,0,0,0,0,0,0,0,0,0,0],"split_type":[0,0,0,0,0,0,0,0,0,0,0,0,0,0,0,0,0,0,0,0,0,0,0,0,0,0,0,0,0,0,0,0,0,0,0,0,0,0,0,0,0,0,0,0,0,0,0,0,0,0,0,0,0,0,0,0,0,0,0,0,0,0,0,0,0,0,0,0,0,0,0,0,0,0,0,0,0,0,0,0,0,0,0,0,0,0,0,0,0,0,0,0,0,0,0,0,0,0,0,0,0,0,0,0,0,0,0,0,0,0,0,0,0,0,0,0,0,0,0,0,0,0,0,0,0,0,0],"sum_hessian":[1.78149E5,9.8038E4,8.0111E4,4.7374E4,5.0664E4,5.4407E4,2.5704E4,1.7365E4,3.0009E4,2.43E4,2.6364E4,2.7292E4,2.7115E4,1.8062E4,7.642E3,1.2822E4,4.543E3,1.8974E4,1.1035E4,1.1108E4,1.3192E4,1.4515E4,1.1849E4,1.4637E4,1.2655E4,1.4567E4,1.2548E4,9.698E3,8.364E3,4.859E3,2.783E3,4.927E3,7.895E3,1.649E3,2.894E3,9.377E3,9.597E3,6.451E3,4.584E3,6.419E3,4.689E3,9.676E3,3.516E3,6.33E3,8.185E3,5.842E3,6.007E3,6.398E3,8.239E3,2.48E3,1.0175E4,3.516E3,1.1051E4,6.286E3,6.262E3,4.115E3,5.583E3,5.564E3,2.8E3,2.076E3,2.783E3,2.098E3,6.85E2,1.068E3,3.859E3,3.593E3,4.302E3,6.14E2,1.035E3,2.226E3,6.68E2,5.521E3,3.856E3,4.871E3,4.726E3,6.007E3,4.44E2,1.677E3,2.907E3,4.31E2,5.988E3,2.675E3,2.014E3,2.916E3,6.76E3,1.561E3,1.955E3,5.35E2,5.795E3,7.973E3,2.12E2,3.08E2,5.534E3,5.7E3,3.07E2,6.49E2,5.749E3,1.446E3,6.793E3,1.046E3,1.434E3,7E3,3.175E3,2.194E3,1.322E3,3.631E3,7.42E3,2.302E3,3.984E3,4.673E3,1.589E3,2.023E3,2.092E3,3.053E3,2.53E3,2.665E3,2.899E3,1.486E3,1.314E3,1.291E3,7.85E2,1.511E3,1.272E3,1.395E3,7.03E2,6.83E2,2E0],"tree_param":{"num_deleted":"0","num_feature":"65","num_nodes":"127","size_leaf_vector":"1"}},{"base_weights":[-8.170862E0,-4.7953677E3,5.677566E3,-7.65488E3,-2.277406E3,3.2868657E3,1.0463341E4,-9.767448E3,-6.5763867E3,-3.0780916E3,1.7288115E3,1.748813E3,4.9058E3,8.947604E3,1.4364283E4,-1.0445414E4,-8.0274717E3,-7.255897E3,-3.7141663E3,-4.367078E3,-1.8650391E3,-7.6484515E2,4.7556855E3,1.0985742E3,6.5299727E3,4.481992E3,1.01524375E4,8.5438955E3,1.4607853E4,1.3098492E4,1.6584664E4,-1.1451292E4,-9.809249E3,-9.443619E3,-4.2910117E3,-6.5667534E3,-8.288614E3,-5.2776553E3,1.3693389E3,-3.5802527E3,-5.6346484E3,-1.1224623E3,-3.1138967E3,5.8824066E2,-2.810707E3,3.5883542E3,7.8457285E3,1.8682834E3,-3.9427115E2,5.088322E3,9.254931E3,5.299574E3,2.2947996E3,8.832349E3,1.2437984E4,9.30451E3,6.10287E3,1.2281919E4,1.5868458E4,1.2903328E4,9.474736E2,1.716166E4,1.3170419E4,-5.422029E2,-6.134469E2,-4.1627316E2,-5.0994238E2,-3.4513763E2,-5.104685E2,-2.7987643E2,-1.1428877E2,-3.7532602E2,-2.8807578E2,-4.5890192E2,-3.7768405E2,-1.434645E2,-3.5458325E2,-9.224854E0,1.7091885E2,-1.0532631E2,-1.9682448E2,-3.2381583E2,-2.4601286E2,-6.4337E1,1.3531557E2,-2.2119241E2,-1.03420105E2,-9.173052E1,8.862888E1,-1.725413E2,-3.765665E1,2.1150777E2,-2.325724E1,3.4562213E2,5.591811E2,5.2464222E1,1.4591472E2,-8.60331E1,5.0338863E1,3.2119037E2,1.439784E2,4.2078784E2,5.877413E2,2.3040083E2,3.0982043E2,4.271391E1,2.5339592E2,4.8143774E2,3.539232E2,6.006142E2,7.9988324E2,4.0439102E2,5.313254E2,2.4185648E2,4.6580038E2,5.583032E2,6.550807E2,7.011794E2,8.211968E2,6.808609E2,4.8944263E2,8.212554E2,9.629476E2,6.297695E2,1.066903E3],"categories":[],"categories_nodes":[],"categories_segments":[],"categories_sizes":[],"default_left":[0,0,0,0,0,0,0,0,0,0,0,0,0,0,0,0,0,0,0,0,0,0,0,0,0,0,0,0,0,0,0,0,0,0,0,0,0,0,0,0,0,0,0,0,0,0,0,0,0,0,0,0,0,0,0,0,0,0,0,0,0,0,0,0,0,0,0,0,0,0,0,0,0,0,0,0,0,0,0,0,0,0,0,0,0,0,0,0,0,0,0,0,0,0,0,0,0,0,0,0,0,0,0,0,0,0,0,0,0,0,0,0,0,0,0,0,0,0,0,0,0,0,0,0,0],"id":2,"left_children":[1,3,5,7,9,11,13,15,17,19,21,23,25,27,29,31,33,35,37,39,41,43,45,47,49,51,53,55,57,59,61,63,65,67,69,71,73,75,77,79,81,83,85,87,89,91,93,95,97,99,101,103,105,107,109,111,113,115,117,119,-1,121,123,-1,-1,-1,-1,-1,-1,-1,-1,-1,-1,-1,-1,-1,-1,-1,-1,-1,-1,-1,-1,-1,-1,-1,-1,-1,-1,-1,-1,-1,-1,-1,-1,-1,-1,-1,-1,-1,-1,-1,-1,-1,-1,-1,-1,-1,-1,-1,-1,-1,-1,-1,-1,-1,-1,-1,-1,-1,-1,-1,-1,-1,-1],"loss_changes":[4.8475485E12,6.961496E11,9.313832E11,1.0308551E11,1.6493348E11,1.3517383E11,1.602211E11,1.7963549E10,5.8271597E10,6.6995618E10,6.4652132E10,8.655069E10,5.876554E10,4.4509823E10,2.1106262E10,6.930432E9,2.2680666E10,1.718485E10,4.5732102E10,2.0699906E10,2.0471046E10,1.3004014E10,1.3927727E10,2.816412E10,1.3046383E10,4.3752456E10,5.851988E9,3.3799668E10,3.6138844E9,5.2788593E9,5.193466E9,1.9810877E9,3.8165545E9,5.986386E9,3.0838968E9,1.0954342E10,6.2653727E9,1.9202351E10,4.311589E9,6.722683E9,4.751311E9,8.712995E9,1.1264958E10,8.118119E9,2.4603638E9,7.312294E9,3.2248177E9,1.3904179E10,1.5498409E10,6.417875E9,2.3177953E9,1.1019911E10,2.6604618E10,1.6862331E9,9.004073E8,2.2273327E10,1.7585373E10,2.753659E8,6.294733E8,1.0281026E10,0E0,3.3138278E9,1.619288E9,0E0,0E0,0E0,0E0,0E0,0E0,0E0,0E0,0E0,0E0,0E0,0E0,0E0,0E0,0E0,0E0,0E0,0E0,0E0,0E0,0E0,0E0,0E0,0E0,0E0,0E0,0E0,0E0,0E0,0E0,0E0,0E0,0E0,0E0,0E0,0E0,0E0,0E0,0E0,0E0,0E0,0E0,0E0,0E0,0E0,0E0,0E0,0E0,0E0,0E0,0E0,0E0,0E0,0E0,0E0,0E0,0E0,0E0,0E0,0E0,0E0,0E0],"parents":[2147483647,0,0,1,1,2,2,3,3,4,4,5,5,6,6,7,7,8,8,9,9,10,10,11,11,12,12,13,13,14,14,15,15,16,16,17,17,18,18,19,19,20,20,21,21,22,22,23,23,24,24,25,25,26,26,27,27,28,28,29,29,30,30,31,31,32,32,33,33,34,34,35,35,36,36,37,37,38,38,39,39,40,40,41,41,42,42,43,43,44,44,45,45,46,46,47,47,48,48,49,49,50,50,51,51,52,52,53,53,54,54,55,55,56,56,57,57,58,58,59,59,61,61,62,62],"right_children":[2,4,6,8,10,12,14,16,18,20,22,24,26,28,30,32,34,36,38,40,42,44,46,48,50,52,54,56,58,60,62,64,66,68,70,72,74,76,78,80,82,84,86,88,90,92,94,96,98,100,102,104,106,108,110,112,114,116,118,120,-1,122,124,-1,-1,-1,-1,-1,-1,-1,-1,-1,-1,-1,-1,-1,-1,-1,-1,-1,-1,-1,-1,-1,-1,-1,-1,-1,-1,-1,-1,-1,-1,-1,-1,-1,-1,-1,-1,-1,-1,-1,-1,-1,-1,-1,-1,-1,-1,-1,-1,-1,-1,-1,-1,-1,-1,-1,-1,-1,-1,-1,-1,-1,-1],"split_conditions":[3.3857E4,2.7658E4,4.1954E4,2.3565E4,6E0,3.7879E4,4.7826E4,6E0,6E0,3.0777E4,3.1828E4,6E0,6E0,6E0,5.1349E4,2.1705E4,2.4916E4,4E0,2.9275E4,4E0,4E0,3.1348E4,3.5367E4,4E0,3.6839E4,4E0,4.0083E4,4E0,4.1803E4,6E0,4E0,4E0,1E0,2.306E4,2.6293E4,2.5576E4,2.5576E4,2.7293E4,3.2063E4,2.7386E4,5E0,1E0,5E0,2.7933E4,3.1431E4,3.4984E4,4.434E4,3.609E4,5E0,3.1979E4,3.9787E4,4.0083E4,5E0,3.4213E4,4.7826E4,4.4531E4,5E0,4.305E4,2.986E4,4E0,9.474736E2,5.4255E4,6E0,-5.422029E2,-6.134469E2,-4.1627316E2,-5.0994238E2,-3.4513763E2,-5.104685E2,-2.7987643E2,-1.1428877E2,-3.7532602E2,-2.8807578E2,-4.5890192E2,-3.7768405E2,-1.434645E2,-3.5458325E2,-9.224854E0,1.7091885E2,-1.0532631E2,-1.9682448E2,-3.2381583E2,-2.4601286E2,-6.4337E1,1.3531557E2,-2.2119241E2,-1.03420105E2,-9.173052E1,8.862888E1,-1.725413E2,-3.765665E1,2.1150777E2,-2.325724E1,3.4562213E2,5.591811E2,5.2464222E1,1.4591472E2,-8.60331E1,5.0338863E1,3.2119037E2,1.439784E2,4.2078784E2,5.877413E2,2.3040083E2,3.0982043E2,4.271391E1,2.5339592E2,4.8143774E2,3.539232E2,6.006142E2,7.9988324E2,4.0439102E2,5.313254E2,2.4185648E2,4.6580038E2,5.583032E2,6.550807E2,7.011794E2,8.211968E2,6.808609E2,4.8944263E2,8.212554E2,9.629476E2,6.297695E2,1.066903E3],"split_indices":[17,17,17,17,3,17,17,3,3,17,62,3,3,3,17,17,62,3,62,3,3,40,62,3,60,3,62,3,63,3,3,3,3,30,63,17,17,28,62,21,3,2,3,62,17,30,46,17,3,37,63,17,3,38,49,17,3,17,47,3,0,17,3,0,0,0,0,0,0,0,0,0,0,0,0,0,0,0,0,0,0,0,0,0,0,0,0,0,0,0,0,0,0,0,0,0,0,0,0,0,0,0,0,0,0,0,0,0,0,0,0,0,0,0,0,0,0,0,0,0,0,0,0,0,0],"split_type":[0,0,0,0,0,0,0,0,0,0,0,0,0,0,0,0,0,0,0,0,0,0,0,0,0,0,0,0,0,0,0,0,0,0,0,0,0,0,0,0,0,0,0,0,0,0,0,0,0,0,0,0,0,0,0,0,0,0,0,0,0,0,0,0,0,0,0,0,0,0,0,0,0,0,0,0,0,0,0,0,0,0,0,0,0,0,0,0,0,0,0,0,0,0,0,0,0,0,0,0,0,0,0,0,0,0,0,0,0,0,0,0,0,0,0,0,0,0,0,0,0,0,0,0,0],"sum_hessian":[1.78094E5,9.6687E4,8.1407E4,4.5272E4,5.1415E4,5.4289E4,2.7118E4,1.5298E4,2.9974E4,4.2851E4,8.564E3,2.7841E4,2.6448E4,1.9532E4,7.586E3,1.1005E4,4.293E3,2.4222E4,5.752E3,2.0774E4,2.2077E4,4.696E3,3.868E3,2.4509E4,3.332E3,2.4473E4,1.975E3,1.8234E4,1.298E3,4.836E3,2.75E3,4.257E3,6.748E3,3.112E3,1.181E3,1.4532E4,9.69E3,4.399E3,1.353E3,1.282E4,7.954E3,1.3846E4,8.231E3,2.827E3,1.869E3,2.809E3,1.059E3,1.6171E4,8.338E3,2.181E3,1.151E3,1.7813E4,6.66E3,1.255E3,7.2E2,1.39E4,4.334E3,4.6E2,8.38E2,4.683E3,1.53E2,2.349E3,4.01E2,2.451E3,1.806E3,1.408E3,5.34E3,7.23E2,2.389E3,7.14E2,4.67E2,6.702E3,7.83E3,4.379E3,5.311E3,1.891E3,2.508E3,7.7E2,5.83E2,2.497E3,1.0323E4,3.648E3,4.306E3,1.3277E4,5.69E2,3.652E3,4.579E3,9.28E2,1.899E3,1.425E3,4.44E2,2.425E3,3.84E2,8.3E2,2.29E2,9.086E3,7.085E3,4.283E3,4.055E3,1.358E3,8.23E2,8.65E2,2.86E2,1.0061E4,7.752E3,4.384E3,2.276E3,8.6E2,3.95E2,6.47E2,7.3E1,7.242E3,6.658E3,3.111E3,1.223E3,2.01E2,2.59E2,2E2,6.38E2,3.807E3,8.76E2,1.745E3,6.04E2,3.77E2,2.4E1],"tree_param":{"num_deleted":"0","num_feature":"65","num_nodes":"125","size_leaf_vector":"1"}},{"base_weights":[2.5800776E0,-4.2406406E3,5.800075E3,-7.1081113E3,-1.7214531E3,3.7167717E3,1.0550411E4,-9.01759E3,-5.9549097E3,-3.0017559E3,-4.1297778E2,2.4084824E3,5.4802295E3,9.105551E3,1.3889258E4,-9.670647E3,-6.8899683E3,-4.6185444E3,-6.7165576E3,-3.6356265E3,-1.7741494E3,-1.16715E3,1.0939106E3,1.8561398E3,4.223013E3,5.0409263E3,8.036832E3,8.689083E3,1.2082738E4,1.2906432E4,1.6252716E4,-1.0628359E4,-8.906725E3,-8.459121E3,-6.3773013E3,-5.472116E3,-3.9502258E3,-7.517696E3,-5.9130386E3,-4.1753237E3,-2.99051E3,-9.251673E2,-3.8211973E3,-1.3096608E3,2.1104448E3,1.5153218E3,-1.3653069E3,8.462715E2,2.5925505E3,3.0485388E3,5.2568667E3,4.3354297E3,5.84501E3,8.495255E3,5.6191494E3,7.603712E3,9.815987E3,1.0885965E4,1.3090083E4,1.2000249E4,1.3577122E4,1.5459003E4,8.916841E2,-5.5755035E2,-5.0944733E2,-4.5402634E2,-4.025531E2,-4.5461093E2,-3.0064032E2,-4.2750885E2,-2.9509036E2,-2.8888846E2,-1.11161964E2,-1.8147632E2,-3.508611E2,-3.96988E2,-3.5328745E2,-3.089715E2,-2.5580325E2,-1.9708678E2,-2.7924097E2,-1.5530247E2,2.8108603E1,-2.5987745E1,-1.6811055E2,-2.2997014E2,-1.3379094E2,-9.807211E1,-3.1568705E1,1.4023166E2,-1.5250094E1,1.26043785E2,6.607063E0,-1.0116575E2,-2.4758745E1,3.6162624E1,1.968334E2,1.407131E2,7.628698E1,1.8909155E2,6.946256E1,2.9771655E2,1.8089323E2,2.679987E2,2.0499376E2,3.0329196E2,2.4214595E2,4.6267917E2,3.5933804E2,2.0723929E2,3.243768E2,3.522953E2,4.081412E2,4.6232452E2,5.249597E2,6.0717676E2,4.639116E2,7.0975604E2,5.6526154E2,5.8839056E2,7.682981E2,6.7083215E2,8.430876E2,7.9332916E2,7.44141E2],"categories":[],"categories_nodes":[],"categories_segments":[],"categories_sizes":[],"default_left":[0,0,0,0,0,0,0,0,0,0,0,0,0,0,0,0,0,0,0,0,0,0,0,0,0,0,0,0,0,0,0,0,0,0,0,0,0,0,0,0,0,0,0,0,0,0,0,0,0,0,0,0,0,0,0,0,0,0,0,0,0,0,0,0,0,0,0,0,0,0,0,0,0,0,0,0,0,0,0,0,0,0,0,0,0,0,0,0,0,0,0,0,0,0,0,0,0,0,0,0,0,0,0,0,0,0,0,0,0,0,0,0,0,0,0,0,0,0,0,0,0,0,0,0,0],"id":3,"left_children":[1,3,5,7,9,11,13,15,17,19,21,23,25,27,29,31,33,35,37,39,41,43,45,47,49,51,53,55,57,59,61,63,65,67,69,71,73,75,77,79,81,83,85,87,89,91,93,95,97,99,101,103,105,107,109,111,113,115,117,119,121,123,-1,-1,-1,-1,-1,-1,-1,-1,-1,-1,-1,-1,-1,-1,-1,-1,-1,-1,-1,-1,-1,-1,-1,-1,-1,-1,-1,-1,-1,-1,-1,-1,-1,-1,-1,-1,-1,-1,-1,-1,-1,-1,-1,-1,-1,-1,-1,-1,-1,-1,-1,-1,-1,-1,-1,-1,-1,-1,-1,-1,-1,-1,-1],"loss_changes":[4.3855E12,7.435519E11,7.455352E11,1.0594864E11,9.179547E10,1.20814895E11,1.1067012E11,2.5116017E10,3.0520443E10,2.154501E10,3.0800298E10,3.0127587E10,2.5010766E10,1.9774308E10,1.5899296E10,1.004929E10,3.3730068E9,6.1963796E9,1.2261786E10,6.3464407E9,1.639014E10,8.439392E9,9.370596E9,1.7141817E10,8.503042E9,1.0773922E10,3.5753656E9,1.7133273E10,2.2264545E9,2.8169994E9,2.2753772E9,1.2981371E9,1.074856E9,1.5653356E9,3.2712376E9,4.737794E9,5.9911127E9,1.7691771E9,1.9956695E9,3.2513065E9,3.4181366E9,6.5872763E9,2.4522506E9,7.651422E9,1.263467E9,1.0734348E10,7.5648666E8,3.6936197E9,3.1488E9,3.9941796E9,4.2423992E9,2.4261263E9,1.938817E9,2.6582712E9,6.439967E8,2.178941E9,2.5872302E9,1.7150607E9,1.9341476E9,1.4573568E9,1.2549489E9,8.349286E7,0E0,0E0,0E0,0E0,0E0,0E0,0E0,0E0,0E0,0E0,0E0,0E0,0E0,0E0,0E0,0E0,0E0,0E0,0E0,0E0,0E0,0E0,0E0,0E0,0E0,0E0,0E0,0E0,0E0,0E0,0E0,0E0,0E0,0E0,0E0,0E0,0E0,0E0,0E0,0E0,0E0,0E0,0E0,0E0,0E0,0E0,0E0,0E0,0E0,0E0,0E0,0E0,0E0,0E0,0E0,0E0,0E0,0E0,0E0,0E0,0E0,0E0,0E0],"parents":[2147483647,0,0,1,1,2,2,3,3,4,4,5,5,6,6,7,7,8,8,9,9,10,10,11,11,12,12,13,13,14,14,15,15,16,16,17,17,18,18,19,19,20,20,21,21,22,22,23,23,24,24,25,25,26,26,27,27,28,28,29,29,30,30,31,31,32,32,33,33,34,34,35,35,36,36,37,37,38,38,39,39,40,40,41,41,42,42,43,43,44,44,45,45,46,46,47,47,48,48,49,49,50,50,51,51,52,52,53,53,54,54,55,55,56,56,57,57,58,58,59,59,60,60,61,61],"right_children":[2,4,6,8,10,12,14,16,18,20,22,24,26,28,30,32,34,36,38,40,42,44,46,48,50,52,54,56,58,60,62,64,66,68,70,72,74,76,78,80,82,84,86,88,90,92,94,96,98,100,102,104,106,108,110,112,114,116,118,120,122,124,-1,-1,-1,-1,-1,-1,-1,-1,-1,-1,-1,-1,-1,-1,-1,-1,-1,-1,-1,-1,-1,-1,-1,-1,-1,-1,-1,-1,-1,-1,-1,-1,-1,-1,-1,-1,-1,-1,-1,-1,-1,-1,-1,-1,-1,-1,-1,-1,-1,-1,-1,-1,-1,-1,-1,-1,-1,-1,-1,-1,-1,-1,-1],"split_conditions":[3.4685E4,2.8019E4,4.2884E4,2.4021E4,3.1431E4,3.9096E4,4.8214E4,1.4E1,2.8562E4,1E0,1E0,1E0,1E0,1E0,5.2061E4,2.2056E4,1E0,1E0,2.6023E4,2.9939E4,3.333E4,1E0,3.7572E4,3.6635E4,3.6416E4,4.0811E4,3.7985E4,4.5156E4,4.4531E4,4.9597E4,5.4255E4,2.088E4,1.2E1,1E0,2.088E4,1E0,3.6736E4,2.5101E4,2.8292E4,4.5E1,1E0,4.4E1,3.0021E4,3.3015E4,3.3857E4,3.6529E4,3.3082E4,1E0,4.2E1,3.4302E4,3.4303E4,3.6097E4,4E1,4.3602E4,2.1E1,4.3973E4,4.6603E4,4.5388E4,4.8214E4,1E0,1E0,4.018E4,8.916841E2,-5.5755035E2,-5.0944733E2,-4.5402634E2,-4.025531E2,-4.5461093E2,-3.0064032E2,-4.2750885E2,-2.9509036E2,-2.8888846E2,-1.11161964E2,-1.8147632E2,-3.508611E2,-3.96988E2,-3.5328745E2,-3.089715E2,-2.5580325E2,-1.9708678E2,-2.7924097E2,-1.5530247E2,2.8108603E1,-2.5987745E1,-1.6811055E2,-2.2997014E2,-1.3379094E2,-9.807211E1,-3.1568705E1,1.4023166E2,-1.5250094E1,1.26043785E2,6.607063E0,-1.0116575E2,-2.4758745E1,3.6162624E1,1.968334E2,1.407131E2,7.628698E1,1.8909155E2,6.946256E1,2.9771655E2,1.8089323E2,2.679987E2,2.0499376E2,3.0329196E2,2.4214595E2,4.6267917E2,3.5933804E2,2.0723929E2,3.243768E2,3.522953E2,4.081412E2,4.6232452E2,5.249597E2,6.0717676E2,4.639116E2,7.0975604E2,5.6526154E2,5.8839056E2,7.682981E2,6.7083215E2,8.430876E2,7.9332916E2,7.44141E2],"split_indices":[17,17,17,17,17,17,17,0,29,4,4,4,4,4,17,17,4,4,17,17,28,2,28,17,17,17,41,17,17,17,17,17,0,2,17,2,61,17,62,0,2,0,17,17,38,64,17,2,0,37,39,64,0,64,0,17,17,64,64,4,4,41,0,0,0,0,0,0,0,0,0,0,0,0,0,0,0,0,0,0,0,0,0,0,0,0,0,0,0,0,0,0,0,0,0,0,0,0,0,0,0,0,0,0,0,0,0,0,0,0,0,0,0,0,0,0,0,0,0,0,0,0,0,0,0],"split_type":[0,0,0,0,0,0,0,0,0,0,0,0,0,0,0,0,0,0,0,0,0,0,0,0,0,0,0,0,0,0,0,0,0,0,0,0,0,0,0,0,0,0,0,0,0,0,0,0,0,0,0,0,0,0,0,0,0,0,0,0,0,0,0,0,0,0,0,0,0,0,0,0,0,0,0,0,0,0,0,0,0,0,0,0,0,0,0,0,0,0,0,0,0,0,0,0,0,0,0,0,0,0,0,0,0,0,0,0,0,0,0,0,0,0,0,0,0,0,0,0,0,0,0,0,0],"sum_hessian":[1.7827E5,1.02933E5,7.5337E4,4.8138E4,5.4795E4,5.2371E4,2.2966E4,1.8123E4,3.0015E4,2.7695E4,2.71E4,3.0067E4,2.2304E4,1.6032E4,6.934E3,1.3864E4,4.259E3,1.0899E4,1.9116E4,1.8263E4,9.432E3,1.8061E4,9.039E3,2.3052E4,7.015E3,1.9036E4,3.268E3,1.4068E4,1.964E3,4.902E3,2.032E3,6.146E3,7.718E3,1.045E3,3.214E3,4.783E3,6.116E3,9.568E3,9.548E3,9.941E3,8.322E3,6.668E3,2.764E3,1.7309E4,7.52E2,7.717E3,1.322E3,9.722E3,1.333E4,3.286E3,3.729E3,1.0143E4,8.893E3,2.745E3,5.23E2,7.17E3,6.898E3,9.03E2,1.061E3,2.093E3,2.809E3,1.36E3,6.72E2,2.796E3,3.35E3,6.407E3,1.311E3,8.28E2,2.17E2,5.74E2,2.64E3,4.371E3,4.12E2,5.539E3,5.77E2,4.939E3,4.629E3,7.151E3,2.397E3,8.531E3,1.41E3,8.06E3,2.62E2,5.718E3,9.5E2,1.644E3,1.12E3,8.826E3,8.483E3,5.84E2,1.68E2,4.468E3,3.249E3,7.52E2,5.7E2,9.351E3,3.71E2,1.1035E4,2.295E3,2.278E3,1.008E3,2.614E3,1.115E3,1.892E3,8.251E3,7.283E3,1.61E3,1.734E3,1.011E3,1.96E2,3.27E2,3.596E3,3.574E3,3.77E3,3.128E3,5.03E2,4E2,6.51E2,4.1E2,1.962E3,1.31E2,2.683E3,1.26E2,7.81E2,5.79E2],"tree_param":{"num_deleted":"0","num_feature":"65","num_nodes":"125","size_leaf_vector":"1"}},{"base_weights":[-5.2748346E0,-4.451183E3,5.1163535E3,-7.225864E3,-2.271473E3,2.9502793E3,9.558254E3,-9.044975E3,-6.240299E3,-3.0353752E3,1.444215E3,2.4629268E3,7.387995E3,8.252893E3,1.3349427E4,-9.584493E3,-7.680432E3,-6.8425703E3,-3.692346E3,-4.3437705E3,-1.9543356E3,-4.8683325E2,4.01841E3,8.321865E2,4.0000369E3,5.6751655E3,9.604501E3,7.8718306E3,1.3606095E4,1.2373646E4,1.5581121E4,-1.0414952E4,-9.016372E3,-9.224617E3,-5.3912456E3,-7.535558E3,-6.1358286E3,-6.502517E3,-1.9070745E3,-3.6501653E3,-5.434361E3,-1.2645763E3,-3.121002E3,-3.3594175E3,3.614527E2,3.1683801E3,7.3766475E3,1.5746194E3,-6.1427924E2,4.838332E3,1.7869219E3,1.4483933E3,5.9645103E3,3.109764E3,9.868701E3,8.647333E3,5.401961E3,1.2611929E4,1.5050057E4,1.2928E4,1.01554795E4,1.6086558E4,1.2323385E4,-4.8714523E2,-5.499066E2,-3.8624805E2,-4.6653806E2,-5.0396298E2,-4.0234036E2,-3.557246E2,-2.0205978E2,-3.4882736E2,-4.1907193E2,-2.7748898E2,-3.4974802E2,-3.5738074E2,-2.6789307E2,-1.4961037E2,6.2074238E1,-1.887969E2,-3.022208E1,-3.1196848E2,-2.4154607E2,-7.0729485E1,1.2343864E2,-2.1316719E2,-1.1048734E2,-2.0035898E2,-1.1746034E2,-6.505553E1,6.523325E1,-4.549807E1,1.8563445E2,3.0799356E2,4.7182568E2,3.9687748E1,1.1881001E2,-9.144968E1,3.13866E1,1.9810938E2,2.7475348E2,2.415119E1,2.128971E2,-1.4307658E1,9.2194016E1,2.325614E2,3.33583E2,1.3074069E2,2.2727425E2,4.7666696E2,6.8701605E2,3.7219733E2,4.9252603E2,2.1006412E2,4.220944E2,6.0258344E2,7.042275E2,6.744696E2,7.7067255E2,6.09947E2,6.9336694E2,4.0532297E2,7.760052E2,7.65852E2,8.78591E2,5.801354E2,8.8518475E2],"categories":[],"categories_nodes":[],"categories_segments":[],"categories_sizes":[],"default_left":[0,0,0,0,0,0,0,0,0,0,0,0,0,0,0,0,0,0,0,0,0,0,0,0,0,0,0,0,0,0,0,0,0,0,0,0,0,0,0,0,0,0,0,0,0,0,0,0,0,0,0,0,0,0,0,0,0,0,0,0,0,0,0,0,0,0,0,0,0,0,0,0,0,0,0,0,0,0,0,0,0,0,0,0,0,0,0,0,0,0,0,0,0,0,0,0,0,0,0,0,0,0,0,0,0,0,0,0,0,0,0,0,0,0,0,0,0,0,0,0,0,0,0,0,0,0,0],"id":4,"left_children":[1,3,5,7,9,11,13,15,17,19,21,23,25,27,29,31,33,35,37,39,41,43,45,47,49,51,53,55,57,59,61,63,65,67,69,71,73,75,77,79,81,83,85,87,89,91,93,95,97,99,101,103,105,107,109,111,113,115,117,119,121,123,125,-1,-1,-1,-1,-1,-1,-1,-1,-1,-1,-1,-1,-1,-1,-1,-1,-1,-1,-1,-1,-1,-1,-1,-1,-1,-1,-1,-1,-1,-1,-1,-1,-1,-1,-1,-1,-1,-1,-1,-1,-1,-1,-1,-1,-1,-1,-1,-1,-1,-1,-1,-1,-1,-1,-1,-1,-1,-1,-1,-1,-1,-1,-1,-1],"loss_changes":[4.046827E12,5.7537816E11,7.945717E11,7.498511E10,1.5124405E11,1.2004809E11,1.3386016E11,1.0752885E10,4.163961E10,6.250496E10,4.5172474E10,1.2538823E11,2.0799652E10,4.0976515E10,1.4902493E10,4.876468E9,1.4697988E10,1.0708451E10,2.604046E10,1.5105163E10,1.9472663E10,1.2655375E10,1.1095302E10,2.6068908E10,4.7765717E10,3.7838684E9,4.0754872E9,3.597035E10,1.7295278E9,5.8053755E9,3.2678543E9,1.5675556E9,2.47074E9,2.4253563E9,3.8866944E9,5.182259E9,5.437653E9,1.4510817E9,1.085827E10,4.6807286E9,3.7447926E9,8.523002E9,9.350939E9,7.653673E8,6.289979E9,6.9071954E9,1.9119022E9,1.0038591E10,1.2423691E10,1.0724344E10,2.279652E10,1.3772576E8,2.6640138E9,5.56224E7,2.854011E9,2.0644692E10,1.6374817E10,4.886528E8,9.833677E7,2.4735908E9,1.053664E10,1.8098422E9,9.0741965E8,0E0,0E0,0E0,0E0,0E0,0E0,0E0,0E0,0E0,0E0,0E0,0E0,0E0,0E0,0E0,0E0,0E0,0E0,0E0,0E0,0E0,0E0,0E0,0E0,0E0,0E0,0E0,0E0,0E0,0E0,0E0,0E0,0E0,0E0,0E0,0E0,0E0,0E0,0E0,0E0,0E0,0E0,0E0,0E0,0E0,0E0,0E0,0E0,0E0,0E0,0E0,0E0,0E0,0E0,0E0,0E0,0E0,0E0,0E0,0E0,0E0,0E0,0E0,0E0],"parents":[2147483647,0,0,1,1,2,2,3,3,4,4,5,5,6,6,7,7,8,8,9,9,10,10,11,11,12,12,13,13,14,14,15,15,16,16,17,17,18,18,19,19,20,20,21,21,22,22,23,23,24,24,25,25,26,26,27,27,28,28,29,29,30,30,31,31,32,32,33,33,34,34,35,35,36,36,37,37,38,38,39,39,40,40,41,41,42,42,43,43,44,44,45,45,46,46,47,47,48,48,49,49,50,50,51,51,52,52,53,53,54,54,55,55,56,56,57,57,58,58,59,59,60,60,61,61,62,62],"right_children":[2,4,6,8,10,12,14,16,18,20,22,24,26,28,30,32,34,36,38,40,42,44,46,48,50,52,54,56,58,60,62,64,66,68,70,72,74,76,78,80,82,84,86,88,90,92,94,96,98,100,102,104,106,108,110,112,114,116,118,120,122,124,126,-1,-1,-1,-1,-1,-1,-1,-1,-1,-1,-1,-1,-1,-1,-1,-1,-1,-1,-1,-1,-1,-1,-1,-1,-1,-1,-1,-1,-1,-1,-1,-1,-1,-1,-1,-1,-1,-1,-1,-1,-1,-1,-1,-1,-1,-1,-1,-1,-1,-1,-1,-1,-1,-1,-1,-1,-1,-1,-1,-1,-1,-1,-1,-1],"split_conditions":[3.3675E4,2.7203E4,4.1954E4,2.3446E4,6E0,6E0,4.8214E4,6E0,6E0,3.0276E4,3.1752E4,3.7675E4,3.7369E4,6E0,5.2061E4,2.1704E4,6E0,2.548E4,6E0,4E0,4E0,6E0,3.5472E4,4E0,4E0,6E0,6E0,4E0,4.434E4,4E0,4E0,3E0,1E0,2.8567E4,2.3447E4,4E0,4E0,2.6203E4,2.9441E4,1E0,2.8562E4,1E0,5E0,2.9777E4,2.82E4,6E0,4.3237E4,3.5676E4,5E0,3.949E4,5E0,4.0927E4,3.3772E4,4.7826E4,4.6607E4,4.4531E4,5E0,4.0384E4,3.2061E4,5.0136E4,5E0,5.4255E4,5E0,-4.8714523E2,-5.499066E2,-3.8624805E2,-4.6653806E2,-5.0396298E2,-4.0234036E2,-3.557246E2,-2.0205978E2,-3.4882736E2,-4.1907193E2,-2.7748898E2,-3.4974802E2,-3.5738074E2,-2.6789307E2,-1.4961037E2,6.2074238E1,-1.887969E2,-3.022208E1,-3.1196848E2,-2.4154607E2,-7.0729485E1,1.2343864E2,-2.1316719E2,-1.1048734E2,-2.0035898E2,-1.1746034E2,-6.505553E1,6.523325E1,-4.549807E1,1.8563445E2,3.0799356E2,4.7182568E2,3.9687748E1,1.1881001E2,-9.144968E1,3.13866E1,1.9810938E2,2.7475348E2,2.415119E1,2.128971E2,-1.4307658E1,9.2194016E1,2.325614E2,3.33583E2,1.3074069E2,2.2727425E2,4.7666696E2,6.8701605E2,3.7219733E2,4.9252603E2,2.1006412E2,4.220944E2,6.0258344E2,7.042275E2,6.744696E2,7.7067255E2,6.09947E2,6.9336694E2,4.0532297E2,7.760052E2,7.65852E2,8.78591E2,5.801354E2,8.8518475E2],"split_indices":[1,1,1,1,3,3,1,3,3,1,62,1,63,3,1,1,15,1,15,3,3,15,62,3,3,15,15,3,64,3,3,3,3,41,63,3,3,62,62,2,17,2,3,62,62,15,44,1,3,1,3,37,62,44,47,1,3,55,52,1,3,1,3,0,0,0,0,0,0,0,0,0,0,0,0,0,0,0,0,0,0,0,0,0,0,0,0,0,0,0,0,0,0,0,0,0,0,0,0,0,0,0,0,0,0,0,0,0,0,0,0,0,0,0,0,0,0,0,0,0,0,0,0,0,0,0,0],"split_type":[0,0,0,0,0,0,0,0,0,0,0,0,0,0,0,0,0,0,0,0,0,0,0,0,0,0,0,0,0,0,0,0,0,0,0,0,0,0,0,0,0,0,0,0,0,0,0,0,0,0,0,0,0,0,0,0,0,0,0,0,0,0,0,0,0,0,0,0,0,0,0,0,0,0,0,0,0,0,0,0,0,0,0,0,0,0,0,0,0,0,0,0,0,0,0,0,0,0,0,0,0,0,0,0,0,0,0,0,0,0,0,0,0,0,0,0,0,0,0,0,0,0,0,0,0,0,0],"sum_hessian":[1.77722E5,9.5137E4,8.2585E4,4.1855E4,5.3282E4,5.5515E4,2.707E4,1.4705E4,2.715E4,4.4196E4,9.086E3,5.0023E4,5.492E3,2.0139E4,6.931E3,1.0534E4,4.171E3,2.1958E4,5.192E3,1.9994E4,2.4202E4,5.192E3,3.894E3,2.4273E4,2.575E4,3.1E3,2.392E3,1.8803E4,1.336E3,4.827E3,2.104E3,4.272E3,6.262E3,2.489E3,1.682E3,1.1082E4,1.0876E4,2.016E3,3.176E3,1.2224E4,7.77E3,1.5211E4,8.991E3,1.183E3,4.009E3,3.109E3,7.85E2,1.604E4,8.233E3,1.8675E4,7.075E3,1.99E2,2.901E3,9.4E1,2.298E3,1.4308E4,4.495E3,7.97E2,5.39E2,3.858E3,9.69E2,1.818E3,2.86E2,1.993E3,2.279E3,1.231E3,5.031E3,1.438E3,1.051E3,7.37E2,9.45E2,6.678E3,4.404E3,6.47E3,4.406E3,1.286E3,7.3E2,2.362E3,8.14E2,1.1739E4,4.85E2,3.325E3,4.445E3,1.4624E4,5.87E2,3.988E3,5.003E3,7.19E2,4.64E2,1.451E3,2.558E3,3.66E2,2.743E3,4.96E2,2.89E2,8.126E3,7.914E3,4.162E3,4.071E3,8.004E3,1.0671E4,4.632E3,2.443E3,3.7E1,1.62E2,1.018E3,1.883E3,7.2E1,2.2E1,2.118E3,1.8E2,7.157E3,7.151E3,3.224E3,1.271E3,5.84E2,2.13E2,1.09E2,4.3E2,2.18E3,1.678E3,7.03E2,2.66E2,1.205E3,6.13E2,2.55E2,3.1E1],"tree_param":{"num_deleted":"0","num_feature":"65","num_nodes":"127","size_leaf_vector":"1"}},{"base_weights":[-5.143454E0,-3.8706265E3,5.2948657E3,-6.525649E3,-1.5425056E3,3.4422332E3,9.714535E3,-8.299946E3,-5.454048E3,-2.2741184E3,2.1975361E3,2.222753E3,5.043742E3,8.365235E3,1.268385E4,-8.831097E3,-6.9089966E3,-6.051895E3,-2.8536748E3,-3.408981E3,-1.0757817E3,3.1410565E2,4.476377E3,1.6988185E3,6.8138135E3,4.6746455E3,1.0028965E4,8.013073E3,1.3510061E4,1.1774345E4,1.4796159E4,-9.678914E3,-8.1577993E3,-8.527446E3,-4.70133E3,-6.6973506E3,-5.3140005E3,-5.707638E3,-1.3411987E3,-2.7652178E3,-4.49389E3,-4.174385E2,-2.206893E3,-2.7097786E3,1.060806E3,3.572504E3,7.0176074E3,2.4806096E3,9.771947E1,5.6900723E3,8.433371E3,5.391251E3,2.568423E3,9.47993E3,1.1900546E4,8.727025E3,5.627478E3,1.1965858E4,1.4135017E4,1.2269536E4,9.768578E3,1.5291474E4,1.1536899E4,-4.588398E2,-5.192415E2,-3.4261133E2,-4.2413995E2,-4.7586163E2,-3.7325558E2,-3.2987973E2,-1.7017018E2,-3.0756552E2,-3.7595056E2,-2.3659143E2,-3.0624338E2,-3.184329E2,-2.1669658E2,-1.3001048E2,6.716291E1,-1.445041E2,2.2678236E1,-2.6597E2,-1.8908179E2,-2.816513E1,1.4593378E2,-1.6778125E2,-6.623107E1,-1.5835565E2,-8.37596E1,-1.6015566E1,1.07020805E2,2.089335E2,9.818892E0,3.0951868E2,4.8054224E2,7.874488E1,1.6465286E2,-5.379383E1,7.997433E1,3.078397E2,1.800005E2,4.392398E2,1.7669325E2,2.3758629E2,3.0725323E2,6.2891987E1,2.6057614E2,3.8857935E2,4.8843317E2,5.529186E2,7.02435E2,3.947489E2,4.9263306E2,2.2627904E2,4.312128E2,6.0817914E2,4.57944E2,6.2092865E2,7.266983E2,5.6794977E2,6.473053E2,3.8708633E2,7.403829E2,7.265259E2,8.3600696E2,6.418071E2,4.6136246E2],"categories":[],"categories_nodes":[],"categories_segments":[],"categories_sizes":[],"default_left":[0,0,0,0,0,0,0,0,0,0,0,0,0,0,0,0,0,0,0,0,0,0,0,0,0,0,0,0,0,0,0,0,0,0,0,0,0,0,0,0,0,0,0,0,0,0,0,0,0,0,0,0,0,0,0,0,0,0,0,0,0,0,0,0,0,0,0,0,0,0,0,0,0,0,0,0,0,0,0,0,0,0,0,0,0,0,0,0,0,0,0,0,0,0,0,0,0,0,0,0,0,0,0,0,0,0,0,0,0,0,0,0,0,0,0,0,0,0,0,0,0,0,0,0,0,0,0],"id":5,"left_children":[1,3,5,7,9,11,13,15,17,19,21,23,25,27,29,31,33,35,37,39,41,43,45,47,49,51,53,55,57,59,61,63,65,67,69,71,73,75,77,79,81,83,85,87,89,91,93,95,97,99,101,103,105,107,109,111,113,115,117,119,121,123,125,-1,-1,-1,-1,-1,-1,-1,-1,-1,-1,-1,-1,-1,-1,-1,-1,-1,-1,-1,-1,-1,-1,-1,-1,-1,-1,-1,-1,-1,-1,-1,-1,-1,-1,-1,-1,-1,-1,-1,-1,-1,-1,-1,-1,-1,-1,-1,-1,-1,-1,-1,-1,-1,-1,-1,-1,-1,-1,-1,-1,-1,-1,-1,-1],"loss_changes":[3.6526647E12,6.372608E11,6.1564846E11,9.153649E10,1.5031337E11,1.0346889E11,8.887416E10,1.3337231E10,4.6672904E10,6.2479106E10,3.857543E10,7.234812E10,4.209718E10,2.7563524E10,1.3152944E10,7.410352E9,1.7882055E10,1.159417E10,2.4234099E10,1.6468312E10,1.6641477E10,1.1116431E10,9.316622E9,3.379884E10,5.5593206E9,3.2175653E10,1.5086879E9,2.4301535E10,7.737344E8,4.7012905E9,3.1879332E9,1.9612303E9,3.047424E9,2.9708943E9,5.20516E9,5.795807E9,5.3515715E9,1.7385472E9,1.2413971E10,5.9544125E9,5.145821E9,6.8766003E9,8.328499E9,4.5601792E8,5.8874214E9,6.142755E9,2.2273024E9,1.3345235E10,1.5617187E10,1.7551524E9,2.1384397E9,7.641727E9,1.8754482E10,5.2831027E8,4.850729E8,1.0226565E10,1.0844832E10,4.84352E7,2.9199565E8,2.2487368E9,9.751577E9,1.7204511E9,7.1878246E8,0E0,0E0,0E0,0E0,0E0,0E0,0E0,0E0,0E0,0E0,0E0,0E0,0E0,0E0,0E0,0E0,0E0,0E0,0E0,0E0,0E0,0E0,0E0,0E0,0E0,0E0,0E0,0E0,0E0,0E0,0E0,0E0,0E0,0E0,0E0,0E0,0E0,0E0,0E0,0E0,0E0,0E0,0E0,0E0,0E0,0E0,0E0,0E0,0E0,0E0,0E0,0E0,0E0,0E0,0E0,0E0,0E0,0E0,0E0,0E0,0E0,0E0,0E0,0E0],"parents":[2147483647,0,0,1,1,2,2,3,3,4,4,5,5,6,6,7,7,8,8,9,9,10,10,11,11,12,12,13,13,14,14,15,15,16,16,17,17,18,18,19,19,20,20,21,21,22,22,23,23,24,24,25,25,26,26,27,27,28,28,29,29,30,30,31,31,32,32,33,33,34,34,35,35,36,36,37,37,38,38,39,39,40,40,41,41,42,42,43,43,44,44,45,45,46,46,47,47,48,48,49,49,50,50,51,51,52,52,53,53,54,54,55,55,56,56,57,57,58,58,59,59,60,60,61,61,62,62],"right_children":[2,4,6,8,10,12,14,16,18,20,22,24,26,28,30,32,34,36,38,40,42,44,46,48,50,52,54,56,58,60,62,64,66,68,70,72,74,76,78,80,82,84,86,88,90,92,94,96,98,100,102,104,106,108,110,112,114,116,118,120,122,124,126,-1,-1,-1,-1,-1,-1,-1,-1,-1,-1,-1,-1,-1,-1,-1,-1,-1,-1,-1,-1,-1,-1,-1,-1,-1,-1,-1,-1,-1,-1,-1,-1,-1,-1,-1,-1,-1,-1,-1,-1,-1,-1,-1,-1,-1,-1,-1,-1,-1,-1,-1,-1,-1,-1,-1,-1,-1,-1,-1,-1,-1,-1,-1,-1],"split_conditions":[3.4686E4,2.8019E4,4.305E4,2.4021E4,6E0,3.9096E4,4.8214E4,6E0,6E0,3.151E4,3.2299E4,6E0,6E0,6E0,5.2061E4,2.2224E4,6E0,2.6201E4,6E0,4E0,4E0,6E0,3.6094E4,4E0,3.7267E4,4E0,4.1957E4,4E0,2.986E4,4E0,4E0,4E0,1E0,2.8567E4,2.3567E4,4E0,4E0,2.7204E4,2.8567E4,1E0,5E0,1E0,5E0,3.0615E4,2.9608E4,3.5471E4,3.9203E4,3.6835E4,5E0,3.6419E4,4.1535E4,4.0924E4,5E0,3.7573E4,4.5388E4,4.5609E4,5E0,3.5E2,4.1281E4,4.9597E4,5E0,5.4255E4,4.4736E4,-4.588398E2,-5.192415E2,-3.4261133E2,-4.2413995E2,-4.7586163E2,-3.7325558E2,-3.2987973E2,-1.7017018E2,-3.0756552E2,-3.7595056E2,-2.3659143E2,-3.0624338E2,-3.184329E2,-2.1669658E2,-1.3001048E2,6.716291E1,-1.445041E2,2.2678236E1,-2.6597E2,-1.8908179E2,-2.816513E1,1.4593378E2,-1.6778125E2,-6.623107E1,-1.5835565E2,-8.37596E1,-1.6015566E1,1.07020805E2,2.089335E2,9.818892E0,3.0951868E2,4.8054224E2,7.874488E1,1.6465286E2,-5.379383E1,7.997433E1,3.078397E2,1.800005E2,4.392398E2,1.7669325E2,2.3758629E2,3.0725323E2,6.2891987E1,2.6057614E2,3.8857935E2,4.8843317E2,5.529186E2,7.02435E2,3.947489E2,4.9263306E2,2.2627904E2,4.312128E2,6.0817914E2,4.57944E2,6.2092865E2,7.266983E2,5.6794977E2,6.473053E2,3.8708633E2,7.403829E2,7.265259E2,8.3600696E2,6.418071E2,4.6136246E2],"split_indices":[1,1,1,1,3,1,1,3,3,1,62,3,3,3,1,1,15,1,15,3,3,15,61,3,62,3,63,3,47,3,3,3,3,41,63,3,3,61,63,2,3,2,3,61,62,32,61,1,3,39,31,1,3,63,48,1,3,13,61,1,3,1,51,0,0,0,0,0,0,0,0,0,0,0,0,0,0,0,0,0,0,0,0,0,0,0,0,0,0,0,0,0,0,0,0,0,0,0,0,0,0,0,0,0,0,0,0,0,0,0,0,0,0,0,0,0,0,0,0,0,0,0,0,0,0,0,0],"split_type":[0,0,0,0,0,0,0,0,0,0,0,0,0,0,0,0,0,0,0,0,0,0,0,0,0,0,0,0,0,0,0,0,0,0,0,0,0,0,0,0,0,0,0,0,0,0,0,0,0,0,0,0,0,0,0,0,0,0,0,0,0,0,0,0,0,0,0,0,0,0,0,0,0,0,0,0,0,0,0,0,0,0,0,0,0,0,0,0,0,0,0,0,0,0,0,0,0,0,0,0,0,0,0,0,0,0,0,0,0,0,0,0,0,0,0,0,0,0,0,0,0,0,0,0,0,0,0],"sum_hessian":[1.78289E5,1.03097E5,7.5192E4,4.8166E4,5.4931E4,5.2984E4,2.2208E4,1.8134E4,3.0032E4,4.5944E4,8.987E3,3.0081E4,2.2903E4,1.5272E4,6.936E3,1.3119E4,5.015E3,2.4417E4,5.615E3,2.3596E4,2.2348E4,4.921E3,4.066E3,2.7001E4,3.08E3,2.1326E4,1.577E3,1.4296E4,9.76E2,4.853E3,2.083E3,5.801E3,7.318E3,2.892E3,2.123E3,1.302E4,1.1397E4,1.944E3,3.671E3,1.4811E4,8.785E3,1.4127E4,8.221E3,9.74E2,3.947E3,3.001E3,1.065E3,1.8142E4,8.859E3,1.821E3,1.259E3,1.5911E4,5.415E3,1.224E3,3.53E2,1.1001E4,3.295E3,2.87E2,6.89E2,3.888E3,9.65E2,1.805E3,2.78E2,3.398E3,2.403E3,1.463E3,5.855E3,1.493E3,1.399E3,8.61E2,1.262E3,7.827E3,5.193E3,6.638E3,4.759E3,1.31E3,6.34E2,2.499E3,1.172E3,1.4258E4,5.53E2,4.066E3,4.719E3,1.3536E4,5.91E2,3.57E3,4.651E3,6.74E2,3E2,1.732E3,2.215E3,2.544E3,4.57E2,8.1E2,2.55E2,8.58E3,9.562E3,4.973E3,3.886E3,1.487E3,3.34E2,1.174E3,8.5E1,8.612E3,7.299E3,3.621E3,1.794E3,1.81E2,1.043E3,2.58E2,9.5E1,6.33E3,4.671E3,2.411E3,8.84E2,2.65E2,2.2E1,1.36E2,5.53E2,1.665E3,2.223E3,6.9E2,2.75E2,1.185E3,6.2E2,1.75E2,1.03E2],"tree_param":{"num_deleted":"0","num_feature":"65","num_nodes":"127","size_leaf_vector":"1"}},{"base_weights":[-7.850435E0,-3.7643562E3,4.830495E3,-6.146476E3,-1.6441096E3,3.0673162E3,9.046463E3,-7.6104775E3,-5.0541685E3,-2.708717E3,-5.7598663E2,1.8292865E3,4.5432773E3,7.804896E3,1.1931127E4,-8.1782407E3,-5.7990737E3,-3.9259397E3,-5.723253E3,-1.7932433E3,-3.1732795E3,-2.8852127E2,-1.9660458E3,1.0987913E3,2.5275356E3,3.8827722E3,5.3640254E3,6.7832017E3,8.590561E3,1.1047472E4,1.4003199E4,-9.074097E3,-7.4883228E3,-6.1271216E3,-3.756522E3,-3.726427E3,-6.2143584E3,-6.301576E3,-5.0755757E3,3.628191E2,-1.9969581E3,-4.0173994E3,-2.672435E3,-7.8449036E2,3.957572E2,-4.3793082E2,-2.194901E3,1.7770266E3,5.773367E2,3.002551E3,1.9181365E3,4.5784897E3,3.6408206E3,5.5951084E3,4.6618413E3,7.076298E3,5.9206943E3,8.932606E3,7.6832266E3,1.0479375E4,1.1792943E4,1.3285765E4,1.5396242E4,-4.816014E2,-4.3322086E2,-3.9306873E2,-3.5689273E2,-3.9850003E2,-2.8980087E2,-1.5674034E2,-3.7664166E2,-1.9890366E2,-1.1622166E2,-2.7701913E2,-3.4785574E2,-3.340844E2,-2.9946005E2,-2.6106296E2,-2.028414E2,-1.0595577E2,9.6479645E1,-1.1632409E2,-2.2419521E1,-1.9013745E2,-2.4367976E2,-1.1925452E2,-1.8668977E2,-1.0238007E1,-5.3762695E1,4.1144455E1,-2.4222767E0,-8.059186E1,-7.6066804E0,-1.4115445E2,-8.2523155E1,4.0826622E1,1.08245476E2,4.4700897E1,-8.097354E0,2.3355347E2,1.4019342E2,8.617543E1,1.6971236E2,1.9949966E2,2.7576566E2,1.632825E2,2.0633226E2,3.3127206E2,2.6659225E2,4.07623E2,2.2708557E2,3.8021603E2,3.2407977E2,4.7619223E2,2.8957806E2,4.7734918E2,4.190245E2,3.5368158E2,4.2463126E2,5.421899E2,4.8418652E2,6.3842944E2,5.7088934E2,6.85207E2,6.37682E2,7.828558E2,7.040701E2],"categories":[],"categories_nodes":[],"categories_segments":[],"categories_sizes":[],"default_left":[0,0,0,0,0,0,0,0,0,0,0,0,0,0,0,0,0,0,0,0,0,0,0,0,0,0,0,0,0,0,0,0,0,0,0,0,0,0,0,0,0,0,0,0,0,0,0,0,0,0,0,0,0,0,0,0,0,0,0,0,0,0,0,0,0,0,0,0,0,0,0,0,0,0,0,0,0,0,0,0,0,0,0,0,0,0,0,0,0,0,0,0,0,0,0,0,0,0,0,0,0,0,0,0,0,0,0,0,0,0,0,0,0,0,0,0,0,0,0,0,0,0,0,0,0,0,0],"id":6,"left_children":[1,3,5,7,9,11,13,15,17,19,21,23,25,27,29,31,33,35,37,39,41,43,45,47,49,51,53,55,57,59,61,63,65,67,69,71,73,75,77,79,81,83,85,87,89,91,93,95,97,99,101,103,105,107,109,111,113,115,117,119,121,123,125,-1,-1,-1,-1,-1,-1,-1,-1,-1,-1,-1,-1,-1,-1,-1,-1,-1,-1,-1,-1,-1,-1,-1,-1,-1,-1,-1,-1,-1,-1,-1,-1,-1,-1,-1,-1,-1,-1,-1,-1,-1,-1,-1,-1,-1,-1,-1,-1,-1,-1,-1,-1,-1,-1,-1,-1,-1,-1,-1,-1,-1,-1,-1,-1],"loss_changes":[3.2408328E12,5.0696212E11,5.792878E11,7.555121E10,6.039036E10,1.00406395E11,8.221334E10,2.0723139E10,2.041525E10,1.130632E10,1.0593466E10,1.5241626E10,1.356818E10,1.2840468E10,1.2503024E10,9.434235E9,3.208659E9,4.579967E9,6.333006E9,3.9343964E9,7.448232E9,7.4565105E9,1.5878021E9,5.1653693E9,4.4173967E9,2.3219405E9,1.7871995E9,1.7251369E9,2.7493663E9,1.9308216E9,1.8572247E9,1.4443479E9,1.0801971E9,2.4885166E9,1.5494052E9,3.2633815E9,3.6543693E8,1.0254418E9,1.1692442E9,3.0138885E9,4.1746575E9,1.1885527E9,3.3690173E9,2.1469532E9,1.7518464E9,1.9870582E8,1.3466194E9,2.3636111E9,1.9339535E9,2.8328837E9,1.9178598E9,1.9522683E9,1.8662605E9,2.2439854E9,1.1257692E9,1.5873638E9,7.725916E8,2.1546926E9,1.1699814E9,6.958285E8,6.1915136E8,1.3000704E8,1.7907712E7,0E0,0E0,0E0,0E0,0E0,0E0,0E0,0E0,0E0,0E0,0E0,0E0,0E0,0E0,0E0,0E0,0E0,0E0,0E0,0E0,0E0,0E0,0E0,0E0,0E0,0E0,0E0,0E0,0E0,0E0,0E0,0E0,0E0,0E0,0E0,0E0,0E0,0E0,0E0,0E0,0E0,0E0,0E0,0E0,0E0,0E0,0E0,0E0,0E0,0E0,0E0,0E0,0E0,0E0,0E0,0E0,0E0,0E0,0E0,0E0,0E0,0E0,0E0,0E0],"parents":[2147483647,0,0,1,1,2,2,3,3,4,4,5,5,6,6,7,7,8,8,9,9,10,10,11,11,12,12,13,13,14,14,15,15,16,16,17,17,18,18,19,19,20,20,21,21,22,22,23,23,24,24,25,25,26,26,27,27,28,28,29,29,30,30,31,31,32,32,33,33,34,34,35,35,36,36,37,37,38,38,39,39,40,40,41,41,42,42,43,43,44,44,45,45,46,46,47,47,48,48,49,49,50,50,51,51,52,52,53,53,54,54,55,55,56,56,57,57,58,58,59,59,60,60,61,61,62,62],"right_children":[2,4,6,8,10,12,14,16,18,20,22,24,26,28,30,32,34,36,38,40,42,44,46,48,50,52,54,56,58,60,62,64,66,68,70,72,74,76,78,80,82,84,86,88,90,92,94,96,98,100,102,104,106,108,110,112,114,116,118,120,122,124,126,-1,-1,-1,-1,-1,-1,-1,-1,-1,-1,-1,-1,-1,-1,-1,-1,-1,-1,-1,-1,-1,-1,-1,-1,-1,-1,-1,-1,-1,-1,-1,-1,-1,-1,-1,-1,-1,-1,-1,-1,-1,-1,-1,-1,-1,-1,-1,-1,-1,-1,-1,-1,-1,-1,-1,-1,-1,-1,-1,-1,-1,-1,-1,-1],"split_conditions":[3.4302E4,2.793E4,4.2884E4,2.433E4,3.1189E4,3.87E4,4.8214E4,1.4E1,2.8916E4,2.9007E4,4.4E1,3.6416E4,4.0702E4,4.4735E4,5.2061E4,2.2224E4,2.44E2,4.5E1,2.6201E4,7.4E1,2.9354E4,3.2927E4,2.7931E4,3.498E4,3.7265E4,3.8189E4,3.8804E4,3.9886E4,4.0708E4,5.0136E4,5.4255E4,2.088E4,2.3319E4,2.088E4,2.5934E4,2.63E2,4.7E1,2.5199E4,2.9356E4,1.5E1,4E1,4.6E1,4.5E1,3.1023E4,3.333E4,2.5756E4,3.2619E4,2.6289E4,4.4E1,4.9E1,4.2103E4,2.3E1,3.9885E4,5.8E1,3.3019E4,4.0598E4,3.5271E4,4.2406E4,4.6603E4,4.2568E4,3.5679E4,4.0283E4,4.3048E4,-4.816014E2,-4.3322086E2,-3.9306873E2,-3.5689273E2,-3.9850003E2,-2.8980087E2,-1.5674034E2,-3.7664166E2,-1.9890366E2,-1.1622166E2,-2.7701913E2,-3.4785574E2,-3.340844E2,-2.9946005E2,-2.6106296E2,-2.028414E2,-1.0595577E2,9.6479645E1,-1.1632409E2,-2.2419521E1,-1.9013745E2,-2.4367976E2,-1.1925452E2,-1.8668977E2,-1.0238007E1,-5.3762695E1,4.1144455E1,-2.4222767E0,-8.059186E1,-7.6066804E0,-1.4115445E2,-8.2523155E1,4.0826622E1,1.08245476E2,4.4700897E1,-8.097354E0,2.3355347E2,1.4019342E2,8.617543E1,1.6971236E2,1.9949966E2,2.7576566E2,1.632825E2,2.0633226E2,3.3127206E2,2.6659225E2,4.07623E2,2.2708557E2,3.8021603E2,3.2407977E2,4.7619223E2,2.8957806E2,4.7734918E2,4.190245E2,3.5368158E2,4.2463126E2,5.421899E2,4.8418652E2,6.3842944E2,5.7088934E2,6.85207E2,6.37682E2,7.828558E2,7.040701E2],"split_indices":[17,17,17,17,17,17,17,0,29,22,0,17,17,17,17,17,13,0,17,13,17,17,45,21,26,20,39,39,39,17,17,17,17,17,23,13,0,17,63,0,14,0,0,20,20,61,17,25,0,13,60,0,17,13,64,51,64,54,17,39,40,40,42,0,0,0,0,0,0,0,0,0,0,0,0,0,0,0,0,0,0,0,0,0,0,0,0,0,0,0,0,0,0,0,0,0,0,0,0,0,0,0,0,0,0,0,0,0,0,0,0,0,0,0,0,0,0,0,0,0,0,0,0,0,0,0,0],"split_type":[0,0,0,0,0,0,0,0,0,0,0,0,0,0,0,0,0,0,0,0,0,0,0,0,0,0,0,0,0,0,0,0,0,0,0,0,0,0,0,0,0,0,0,0,0,0,0,0,0,0,0,0,0,0,0,0,0,0,0,0,0,0,0,0,0,0,0,0,0,0,0,0,0,0,0,0,0,0,0,0,0,0,0,0,0,0,0,0,0,0,0,0,0,0,0,0,0,0,0,0,0,0,0,0,0,0,0,0,0,0,0,0,0,0,0,0,0,0,0,0,0,0,0,0,0,0,0],"sum_hessian":[1.78308E5,1.00376E5,7.7932E4,4.7268E4,5.3108E4,5.4952E4,2.298E4,2.0195E4,2.7073E4,2.6597E4,2.6511E4,2.9886E4,2.5066E4,1.6068E4,6.912E3,1.5373E4,4.822E3,1.0081E4,1.6992E4,8.955E3,1.7642E4,2.1969E4,4.542E3,1.4607E4,1.5279E4,1.3892E4,1.1174E4,6.989E3,9.079E3,4.85E3,2.062E3,6.683E3,8.69E3,4.153E3,6.69E2,9.275E3,8.06E2,8.972E3,8.02E3,7.73E2,8.182E3,6.567E3,1.1075E4,1.2737E4,9.232E3,5.92E2,3.95E3,6.348E3,8.259E3,8.584E3,6.695E3,3.58E3,1.0312E4,8.402E3,2.772E3,5.211E3,1.778E3,6.587E3,2.492E3,2.761E3,2.089E3,1.368E3,6.94E2,2.82E3,3.863E3,4.199E3,4.491E3,6.29E2,3.524E3,5.76E2,9.3E1,7.862E3,1.413E3,4.27E2,3.79E2,4.038E3,4.934E3,7.013E3,1.007E3,2.99E2,4.74E2,6.746E3,1.436E3,5.255E3,1.312E3,8.718E3,2.357E3,4.255E3,8.482E3,4.706E3,4.526E3,1.15E2,4.77E2,1.832E3,2.118E3,1.827E3,4.521E3,5.782E3,2.477E3,9.11E2,7.673E3,5.917E3,7.78E2,2.202E3,1.378E3,5.823E3,4.489E3,1.705E3,6.697E3,9E1,2.682E3,2.754E3,2.457E3,5.9E1,1.719E3,3.11E3,3.477E3,1.427E3,1.065E3,1.885E3,8.76E2,5.71E2,1.518E3,7.52E2,6.16E2,5.7E2,1.24E2],"tree_param":{"num_deleted":"0","num_feature":"65","num_nodes":"127","size_leaf_vector":"1"}},{"base_weights":[1.8934256E1,-3.4667136E3,4.8383037E3,-5.885387E3,-1.3741239E3,3.1862046E3,8.870224E3,-7.36239E3,-4.811557E3,-2.0646533E3,2.1513289E3,2.7762383E3,7.3988535E3,7.7110786E3,1.17019795E4,-8.392904E3,-6.726306E3,-5.375477E3,-2.3437097E3,-2.9754155E3,-7.992838E2,1.551057E2,4.034791E3,1.5038306E3,4.207715E3,5.8579453E3,9.13722E3,7.387688E3,1.2579503E4,1.0826329E4,1.3430814E4,-8.696295E3,-6.9809297E3,-7.3168354E3,-4.9294497E3,-4.834464E3,-6.178058E3,-7.3748303E2,-4.7150024E3,-2.349584E3,-4.0251106E3,6.6494705E1,-1.5869734E3,-2.6052366E3,8.465162E2,-3.877829E2,4.4978315E3,2.2579958E3,-3.8205017E1,4.8942764E3,2.1913398E3,6.1375796E3,2.7334014E3,2.7386418E3,9.323699E3,8.0680337E3,5.1089375E3,1.1561948E4,1.3515979E4,1.1323387E4,8.771714E3,1.3841931E4,1.0612013E4,-4.5926227E2,-4.1335788E2,-4.3689478E2,-2.7076068E2,-3.0394998E2,-3.8146393E2,-1.3933519E2,-3.326511E2,-2.7789044E2,-2.1770952E2,-3.458591E2,-2.752296E2,-8.909659E1,1.088679E2,-2.6715768E2,-1.7402309E2,-1.5120856E2,-8.836526E1,-2.3737419E2,-1.5800627E2,-2.9315723E1,2.1449839E1,-1.461578E2,-6.574495E1,-1.4955157E2,-8.364474E1,-1.9353205E1,8.8304855E1,-5.3073193E1,1.51485815E1,1.9765335E2,3.780211E2,7.563143E1,1.4943846E2,-5.553318E1,7.060191E1,2.1249919E2,2.7864462E2,4.6913464E1,2.3359099E2,2.3216312E2,3.3721017E2,8.862956E1,2.0595999E2,1.2074047E2,1.970341E2,4.7908273E2,2.1580693E2,3.6765292E2,4.6257138E2,2.0334058E2,4.0192334E2,5.379611E2,6.609726E2,6.1683026E2,6.9226337E2,5.438919E2,6.094448E2,3.4794516E2,6.8968976E2,6.5825775E2,7.577879E2,5.0506516E2,9.107939E2],"categories":[],"categories_nodes":[],"categories_segments":[],"categories_sizes":[],"default_left":[0,0,0,0,0,0,0,0,0,0,0,0,0,0,0,0,0,0,0,0,0,0,0,0,0,0,0,0,0,0,0,0,0,0,0,0,0,0,0,0,0,0,0,0,0,0,0,0,0,0,0,0,0,0,0,0,0,0,0,0,0,0,0,0,0,0,0,0,0,0,0,0,0,0,0,0,0,0,0,0,0,0,0,0,0,0,0,0,0,0,0,0,0,0,0,0,0,0,0,0,0,0,0,0,0,0,0,0,0,0,0,0,0,0,0,0,0,0,0,0,0,0,0,0,0,0,0],"id":7,"left_children":[1,3,5,7,9,11,13,15,17,19,21,23,25,27,29,31,33,35,37,39,41,43,45,47,49,51,53,55,57,59,61,63,65,67,69,71,73,75,77,79,81,83,85,87,89,91,93,95,97,99,101,103,105,107,109,111,113,115,117,119,121,123,125,-1,-1,-1,-1,-1,-1,-1,-1,-1,-1,-1,-1,-1,-1,-1,-1,-1,-1,-1,-1,-1,-1,-1,-1,-1,-1,-1,-1,-1,-1,-1,-1,-1,-1,-1,-1,-1,-1,-1,-1,-1,-1,-1,-1,-1,-1,-1,-1,-1,-1,-1,-1,-1,-1,-1,-1,-1,-1,-1,-1,-1,-1,-1,-1],"loss_changes":[2.9950267E12,5.2363815E11,4.9841727E11,7.608074E10,1.3504462E11,9.1652686E10,7.1299236E10,1.3185253E10,3.8663225E10,5.345521E10,3.416102E10,8.810493E10,1.2554928E10,2.420795E10,9.414509E9,3.2403292E9,1.322333E10,9.792324E9,1.9692E10,1.7709335E10,1.324045E10,8.4226386E9,9.57535E9,2.978555E10,3.1502991E10,2.165801E9,2.6114458E9,2.240145E10,7.5853005E8,4.1869312E9,2.308735E9,1.2541624E9,3.71592E9,3.5902587E9,1.1408146E10,4.6716355E9,4.494164E9,9.392816E9,1.6006021E9,6.6329313E9,6.2790205E9,2.1892145E9,3.6919153E9,3.129641E8,4.0038994E9,2.0693616E8,7.030743E9,9.364226E9,1.3086524E10,7.4008494E9,1.7973539E10,2.0463616E9,2.683168E8,1.5396608E7,2.7319828E9,9.362604E9,1.013665E10,4.791214E8,2.1045248E7,1.1692933E9,7.387566E9,1.4418248E9,8.800379E8,0E0,0E0,0E0,0E0,0E0,0E0,0E0,0E0,0E0,0E0,0E0,0E0,0E0,0E0,0E0,0E0,0E0,0E0,0E0,0E0,0E0,0E0,0E0,0E0,0E0,0E0,0E0,0E0,0E0,0E0,0E0,0E0,0E0,0E0,0E0,0E0,0E0,0E0,0E0,0E0,0E0,0E0,0E0,0E0,0E0,0E0,0E0,0E0,0E0,0E0,0E0,0E0,0E0,0E0,0E0,0E0,0E0,0E0,0E0,0E0,0E0,0E0,0E0,0E0],"parents":[2147483647,0,0,1,1,2,2,3,3,4,4,5,5,6,6,7,7,8,8,9,9,10,10,11,11,12,12,13,13,14,14,15,15,16,16,17,17,18,18,19,19,20,20,21,21,22,22,23,23,24,24,25,25,26,26,27,27,28,28,29,29,30,30,31,31,32,32,33,33,34,34,35,35,36,36,37,37,38,38,39,39,40,40,41,41,42,42,43,43,44,44,45,45,46,46,47,47,48,48,49,49,50,50,51,51,52,52,53,53,54,54,55,55,56,56,57,57,58,58,59,59,60,60,61,61,62,62],"right_children":[2,4,6,8,10,12,14,16,18,20,22,24,26,28,30,32,34,36,38,40,42,44,46,48,50,52,54,56,58,60,62,64,66,68,70,72,74,76,78,80,82,84,86,88,90,92,94,96,98,100,102,104,106,108,110,112,114,116,118,120,122,124,126,-1,-1,-1,-1,-1,-1,-1,-1,-1,-1,-1,-1,-1,-1,-1,-1,-1,-1,-1,-1,-1,-1,-1,-1,-1,-1,-1,-1,-1,-1,-1,-1,-1,-1,-1,-1,-1,-1,-1,-1,-1,-1,-1,-1,-1,-1,-1,-1,-1,-1,-1,-1,-1,-1,-1,-1,-1,-1,-1,-1,-1,-1,-1,-1],"split_conditions":[3.4785E4,2.8019E4,4.3228E4,2.4329E4,6E0,6E0,4.8634E4,2.2056E4,6E0,3.1969E4,3.1828E4,3.8999E4,3.8195E4,6E0,5.2061E4,1.4E1,6E0,4E0,3.0193E4,4E0,3E0,1.3E1,1.3E1,4E0,4E0,3.9402E4,1.3E1,4E0,4.4941E4,4E0,4E0,2.0881E4,6E0,1E0,2.6112E4,2.5841E4,2.6201E4,2.9441E4,1E1,2.9939E4,3.0276E4,3.2927E4,2.994E4,3.0105E4,2.9096E4,4.018E4,3.7267E4,3.6939E4,5E0,4.0811E4,5E0,3.4886E4,1.2E1,4.8214E4,3.56E2,4.6087E4,5E0,4.0384E4,3.2061E4,5.0696E4,5E0,5.4255E4,6E0,-4.5926227E2,-4.1335788E2,-4.3689478E2,-2.7076068E2,-3.0394998E2,-3.8146393E2,-1.3933519E2,-3.326511E2,-2.7789044E2,-2.1770952E2,-3.458591E2,-2.752296E2,-8.909659E1,1.088679E2,-2.6715768E2,-1.7402309E2,-1.5120856E2,-8.836526E1,-2.3737419E2,-1.5800627E2,-2.9315723E1,2.1449839E1,-1.461578E2,-6.574495E1,-1.4955157E2,-8.364474E1,-1.9353205E1,8.8304855E1,-5.3073193E1,1.51485815E1,1.9765335E2,3.780211E2,7.563143E1,1.4943846E2,-5.553318E1,7.060191E1,2.1249919E2,2.7864462E2,4.6913464E1,2.3359099E2,2.3216312E2,3.3721017E2,8.862956E1,2.0595999E2,1.2074047E2,1.970341E2,4.7908273E2,2.1580693E2,3.6765292E2,4.6257138E2,2.0334058E2,4.0192334E2,5.379611E2,6.609726E2,6.1683026E2,6.9226337E2,5.438919E2,6.094448E2,3.4794516E2,6.8968976E2,6.5825775E2,7.577879E2,5.0506516E2,9.107939E2],"split_indices":[1,1,1,1,3,3,1,1,3,1,62,1,63,3,1,0,3,3,29,3,3,0,0,3,3,41,0,3,1,3,3,1,3,3,28,1,17,63,0,1,17,1,20,1,62,50,61,1,3,1,3,63,0,43,13,1,3,56,51,1,3,1,3,0,0,0,0,0,0,0,0,0,0,0,0,0,0,0,0,0,0,0,0,0,0,0,0,0,0,0,0,0,0,0,0,0,0,0,0,0,0,0,0,0,0,0,0,0,0,0,0,0,0,0,0,0,0,0,0,0,0,0,0,0,0,0,0],"split_type":[0,0,0,0,0,0,0,0,0,0,0,0,0,0,0,0,0,0,0,0,0,0,0,0,0,0,0,0,0,0,0,0,0,0,0,0,0,0,0,0,0,0,0,0,0,0,0,0,0,0,0,0,0,0,0,0,0,0,0,0,0,0,0,0,0,0,0,0,0,0,0,0,0,0,0,0,0,0,0,0,0,0,0,0,0,0,0,0,0,0,0,0,0,0,0,0,0,0,0,0,0,0,0,0,0,0,0,0,0,0,0,0,0,0,0,0,0,0,0,0,0,0,0,0,0,0,0],"sum_hessian":[1.78288E5,1.0346E5,7.4828E4,4.799E4,5.547E4,5.308E4,2.1748E4,2.02E4,2.779E4,4.6385E4,9.085E3,4.8374E4,4.706E3,1.5434E4,6.314E3,7.705E3,1.2495E4,2.262E4,5.17E3,2.6971E4,1.9414E4,4.411E3,4.674E3,2.5611E4,2.2763E4,2.497E3,2.209E3,1.4475E4,9.59E2,4.196E3,2.118E3,6.338E3,1.367E3,9.402E3,3.093E3,1.3516E4,9.104E3,3.083E3,2.087E3,1.6899E4,1.0072E4,9.249E3,1.0165E4,8.83E2,3.528E3,4.43E2,4.231E3,1.7199E4,8.412E3,1.698E4,5.783E3,2.291E3,2.06E2,6.3E1,2.146E3,1.1145E4,3.33E3,4.66E2,4.93E2,3.375E3,8.21E2,1.845E3,2.73E2,2.953E3,3.385E3,6.42E2,7.25E2,1.899E3,7.503E3,1.38E3,1.713E3,5.389E3,8.127E3,4.336E3,4.768E3,2.27E3,8.13E2,1.381E3,7.06E2,7.827E3,9.072E3,5.486E3,4.586E3,3.302E3,5.947E3,1.718E3,8.447E3,6.23E2,2.6E2,1.507E3,2.021E3,2.24E2,2.19E2,3.594E3,6.37E2,8.516E3,8.683E3,4.836E3,3.576E3,8.714E3,8.266E3,3.843E3,1.94E3,6.64E2,1.627E3,1.23E2,8.3E1,5.2E1,1.1E1,2.04E3,1.06E2,6.952E3,4.193E3,2.458E3,8.72E2,3.19E2,1.47E2,1.16E2,3.77E2,2.237E3,1.138E3,6.05E2,2.16E2,1.225E3,6.2E2,2.58E2,1.5E1],"tree_param":{"num_deleted":"0","num_feature":"65","num_nodes":"127","size_leaf_vector":"1"}},{"base_weights":[2.5054572E0,-3.395665E3,4.3651597E3,-5.5416597E3,-1.4718606E3,2.7407656E3,8.0915776E3,-7.189168E3,-4.756614E3,-2.1192263E3,1.7968293E3,1.659286E3,4.0771328E3,6.89531E3,1.0601678E4,-7.76962E3,-5.7830522E3,-5.293887E3,-2.4756987E3,-3.021915E3,-1.13306E3,-3.650842E2,4.0571895E3,1.1811908E3,5.5456685E3,3.760134E3,8.349455E3,6.5899634E3,1.1311308E4,9.663136E3,1.2236937E4,-8.556816E3,-7.2897695E3,-7.432468E3,-3.6124707E3,-4.70876E3,-6.1757075E3,-3.7226753E3,1.6673546E3,-2.356784E3,-4.1069756E3,-5.0869922E2,-2.16952E3,7.612977E2,-2.0340825E3,3.3161694E3,7.291476E3,1.8494033E3,-1.5162173E2,4.0994478E3,7.527738E3,4.394248E3,1.9432299E3,7.088531E3,9.874537E3,7.2170947E3,4.602157E3,1.026498E4,1.2946689E4,1.0405891E4,8.526221E3,1.2689044E4,9.515177E3,-4.0162476E2,-4.4365186E2,-3.2168616E2,-3.7358182E2,-2.8820422E2,-4.1170093E2,-2.4922966E2,-9.612292E1,-2.724766E2,-2.0465938E2,-3.398062E2,-2.7362747E2,-9.126901E1,-2.589624E2,3.1735111E1,1.8700487E2,-1.040533E2,-1.8879347E2,-2.4315152E2,-1.7254955E2,-8.067691E0,-9.144796E1,-1.6252823E2,-6.610638E1,-9.24637E1,6.828068E1,-1.2960417E2,-2.5533844E1,1.9163544E2,2.1058087E0,2.2509126E2,4.1402124E2,7.078857E1,1.5893565E2,-5.9970306E1,5.5913826E1,2.6318042E2,1.3473729E2,3.4165967E2,4.8088858E2,1.9206831E2,2.5105525E2,3.8488636E1,2.1231795E2,3.888267E2,3.0963815E2,4.6182526E2,5.734092E2,3.2078003E2,4.0179752E2,1.8188988E2,3.5712387E2,4.6611374E2,5.689428E2,6.505285E2,3.291741E2,4.9358316E2,5.5400574E2,3.9932626E2,7.253986E2,6.080585E2,7.087631E2,4.5241113E2,8.387876E2],"categories":[],"categories_nodes":[],"categories_segments":[],"categories_sizes":[],"default_left":[0,0,0,0,0,0,0,0,0,0,0,0,0,0,0,0,0,0,0,0,0,0,0,0,0,0,0,0,0,0,0,0,0,0,0,0,0,0,0,0,0,0,0,0,0,0,0,0,0,0,0,0,0,0,0,0,0,0,0,0,0,0,0,0,0,0,0,0,0,0,0,0,0,0,0,0,0,0,0,0,0,0,0,0,0,0,0,0,0,0,0,0,0,0,0,0,0,0,0,0,0,0,0,0,0,0,0,0,0,0,0,0,0,0,0,0,0,0,0,0,0,0,0,0,0,0,0],"id":8,"left_children":[1,3,5,7,9,11,13,15,17,19,21,23,25,27,29,31,33,35,37,39,41,43,45,47,49,51,53,55,57,59,61,63,65,67,69,71,73,75,77,79,81,83,85,87,89,91,93,95,97,99,101,103,105,107,109,111,113,115,117,119,121,123,125,-1,-1,-1,-1,-1,-1,-1,-1,-1,-1,-1,-1,-1,-1,-1,-1,-1,-1,-1,-1,-1,-1,-1,-1,-1,-1,-1,-1,-1,-1,-1,-1,-1,-1,-1,-1,-1,-1,-1,-1,-1,-1,-1,-1,-1,-1,-1,-1,-1,-1,-1,-1,-1,-1,-1,-1,-1,-1,-1,-1,-1,-1,-1,-1],"loss_changes":[2.6386055E12,4.1304995E11,4.7171345E11,6.113447E10,1.1164172E11,7.8434435E10,7.096605E10,1.2410814E10,3.9243678E10,3.9198376E10,4.2623295E10,5.573527E10,3.2846053E10,2.1533753E10,1.1598168E10,4.0168325E9,1.5951561E10,1.3348176E10,3.1567077E10,1.6583115E10,1.3618938E10,8.3841546E9,1.0195231E10,2.3792706E10,9.388491E9,2.6030637E10,3.152978E9,1.8654822E10,1.6381379E9,4.0110326E9,3.3001308E9,6.0584755E8,9.9752346E8,3.3425818E9,4.463583E9,7.0862766E9,4.4727665E9,1.2968161E10,3.024184E9,5.570044E9,4.3159224E9,6.023694E9,7.2436367E9,4.2036997E9,1.5262362E9,5.869912E9,2.1532262E9,1.0252521E10,1.1872772E10,3.0961562E9,1.9447726E9,5.78696E9,1.5804375E10,5.1943834E8,6.6277376E8,7.4264084E9,8.788337E9,5.617582E8,7.694336E7,9.467003E8,6.095438E9,1.6955802E9,1.2043469E9,0E0,0E0,0E0,0E0,0E0,0E0,0E0,0E0,0E0,0E0,0E0,0E0,0E0,0E0,0E0,0E0,0E0,0E0,0E0,0E0,0E0,0E0,0E0,0E0,0E0,0E0,0E0,0E0,0E0,0E0,0E0,0E0,0E0,0E0,0E0,0E0,0E0,0E0,0E0,0E0,0E0,0E0,0E0,0E0,0E0,0E0,0E0,0E0,0E0,0E0,0E0,0E0,0E0,0E0,0E0,0E0,0E0,0E0,0E0,0E0,0E0,0E0,0E0,0E0],"parents":[2147483647,0,0,1,1,2,2,3,3,4,4,5,5,6,6,7,7,8,8,9,9,10,10,11,11,12,12,13,13,14,14,15,15,16,16,17,17,18,18,19,19,20,20,21,21,22,22,23,23,24,24,25,25,26,26,27,27,28,28,29,29,30,30,31,31,32,32,33,33,34,34,35,35,36,36,37,37,38,38,39,39,40,40,41,41,42,42,43,43,44,44,45,45,46,46,47,47,48,48,49,49,50,50,51,51,52,52,53,53,54,54,55,55,56,56,57,57,58,58,59,59,60,60,61,61,62,62],"right_children":[2,4,6,8,10,12,14,16,18,20,22,24,26,28,30,32,34,36,38,40,42,44,46,48,50,52,54,56,58,60,62,64,66,68,70,72,74,76,78,80,82,84,86,88,90,92,94,96,98,100,102,104,106,108,110,112,114,116,118,120,122,124,126,-1,-1,-1,-1,-1,-1,-1,-1,-1,-1,-1,-1,-1,-1,-1,-1,-1,-1,-1,-1,-1,-1,-1,-1,-1,-1,-1,-1,-1,-1,-1,-1,-1,-1,-1,-1,-1,-1,-1,-1,-1,-1,-1,-1,-1,-1,-1,-1,-1,-1,-1,-1,-1,-1,-1,-1,-1,-1,-1,-1,-1,-1,-1,-1],"split_conditions":[3.4302E4,2.793E4,4.2723E4,2.3565E4,6E0,3.87E4,4.7826E4,1.3E1,6E0,3.1346E4,3.1751E4,6E0,6E0,6E0,5.1349E4,2.1515E4,6E0,4E0,2.9441E4,4E0,4E0,3.1348E4,3.7054E4,4E0,3.6736E4,4E0,3.9585E4,4E0,4.1669E4,3E0,4E0,3E0,1E0,3E0,2.4916E4,2.5665E4,2.6023E4,2.7293E4,3.3679E4,4.4E1,5E0,4.3E1,5E0,2.6203E4,3.151E4,3.5367E4,3.8296E4,3.7573E4,5E0,3.1904E4,4.0283E4,4.0595E4,5E0,3.7678E4,4.3412E4,4.4941E4,5E0,4.4735E4,3.55E2,4.9597E4,6E0,5.4255E4,6E0,-4.0162476E2,-4.4365186E2,-3.2168616E2,-3.7358182E2,-2.8820422E2,-4.1170093E2,-2.4922966E2,-9.612292E1,-2.724766E2,-2.0465938E2,-3.398062E2,-2.7362747E2,-9.126901E1,-2.589624E2,3.1735111E1,1.8700487E2,-1.040533E2,-1.8879347E2,-2.4315152E2,-1.7254955E2,-8.067691E0,-9.144796E1,-1.6252823E2,-6.610638E1,-9.24637E1,6.828068E1,-1.2960417E2,-2.5533844E1,1.9163544E2,2.1058087E0,2.2509126E2,4.1402124E2,7.078857E1,1.5893565E2,-5.9970306E1,5.5913826E1,2.6318042E2,1.3473729E2,3.4165967E2,4.8088858E2,1.9206831E2,2.5105525E2,3.8488636E1,2.1231795E2,3.888267E2,3.0963815E2,4.6182526E2,5.734092E2,3.2078003E2,4.0179752E2,1.8188988E2,3.5712387E2,4.6611374E2,5.689428E2,6.505285E2,3.291741E2,4.9358316E2,5.5400574E2,3.9932626E2,7.253986E2,6.080585E2,7.087631E2,4.5241113E2,8.387876E2],"split_indices":[17,17,17,17,3,17,17,0,3,17,61,3,3,3,17,17,3,3,62,3,3,40,61,3,61,3,61,3,60,3,3,3,3,3,63,17,17,28,61,0,3,0,3,61,17,32,45,63,3,36,63,17,3,25,63,17,3,17,13,17,3,17,3,0,0,0,0,0,0,0,0,0,0,0,0,0,0,0,0,0,0,0,0,0,0,0,0,0,0,0,0,0,0,0,0,0,0,0,0,0,0,0,0,0,0,0,0,0,0,0,0,0,0,0,0,0,0,0,0,0,0,0,0,0,0,0,0],"split_type":[0,0,0,0,0,0,0,0,0,0,0,0,0,0,0,0,0,0,0,0,0,0,0,0,0,0,0,0,0,0,0,0,0,0,0,0,0,0,0,0,0,0,0,0,0,0,0,0,0,0,0,0,0,0,0,0,0,0,0,0,0,0,0,0,0,0,0,0,0,0,0,0,0,0,0,0,0,0,0,0,0,0,0,0,0,0,0,0,0,0,0,0,0,0,0,0,0,0,0,0,0,0,0,0,0,0,0,0,0,0,0,0,0,0,0,0,0,0,0,0,0,0,0,0,0,0,0],"sum_hessian":[1.77981E5,1.0005E5,7.7931E4,4.7293E4,5.2757E4,5.4274E4,2.3657E4,1.526E4,3.2033E4,4.4036E4,8.721E3,2.9999E4,2.4275E4,1.6024E4,7.633E3,1.0798E4,4.462E3,2.5925E4,6.108E3,2.299E4,2.1046E4,4.458E3,4.263E3,2.6714E4,3.285E3,2.26E4,1.675E3,1.499E4,1.034E3,4.854E3,2.779E3,4.083E3,6.715E3,2.534E3,1.928E3,1.5588E4,1.0337E4,4.695E3,1.413E3,1.4255E4,8.735E3,1.3135E4,7.911E3,2.662E3,1.796E3,3.47E3,7.93E2,1.7793E4,8.921E3,1.901E3,1.384E3,1.6752E4,5.848E3,9.2E2,7.55E2,1.1393E4,3.597E3,6.35E2,3.99E2,2.931E3,1.923E3,2.38E3,3.99E2,1.546E3,2.537E3,1.183E3,5.532E3,8.25E2,1.709E3,1.063E3,8.65E2,7.071E3,8.517E3,5.487E3,4.85E3,2.04E3,2.655E3,9.44E2,4.69E2,1.1938E4,2.317E3,4.055E3,4.68E3,1.04E4,2.735E3,3.475E3,4.436E3,5E2,2.162E3,1.314E3,4.82E2,2.997E3,4.73E2,2.09E2,5.84E2,1.3418E4,4.375E3,4.888E3,4.033E3,1.038E3,8.63E2,1.042E3,3.42E2,8.905E3,7.847E3,3.875E3,1.973E3,5.16E2,4.04E2,5.44E2,2.11E2,5.762E3,5.631E3,2.609E3,9.88E2,3.49E2,2.86E2,3.94E2,5E0,1.644E3,1.287E3,1.766E3,1.57E2,1.763E3,6.17E2,3.77E2,2.2E1],"tree_param":{"num_deleted":"0","num_feature":"65","num_nodes":"127","size_leaf_vector":"1"}},{"base_weights":[-5.252555E0,-3.4249558E3,4.0013738E3,-5.5960186E3,-1.7526819E3,2.2868418E3,7.3446567E3,-7.0284087E3,-4.821254E3,-2.3602507E3,1.2449865E3,1.8873739E3,5.9498003E3,6.1242095E3,9.895833E3,-7.4749272E3,-5.9130435E3,-5.3121626E3,-2.7730127E3,-3.3082175E3,-1.424778E3,-5.477671E2,3.064306E3,5.860773E2,2.9968608E3,4.452143E3,7.4661377E3,5.804236E3,1.0491572E4,9.069449E3,1.176488E4,-6.9981094E3,-8.1826064E3,-7.1127305E3,-4.1085645E3,-3.9733162E3,-5.567034E3,-1.1200394E3,-4.708538E3,-2.5214973E3,-3.9613428E3,-6.3619965E2,-2.1135125E3,-2.8749595E3,1.20081505E2,-9.233514E2,3.5600305E3,1.1996318E3,-5.886672E2,3.6777844E3,1.2051604E3,4.8215806E3,2.2526067E3,2.2335352E3,7.720148E3,6.4235093E3,3.8438606E3,9.153188E3,1.1087496E4,8.891369E3,6.952181E2,1.2214884E4,9.108244E3,-3.7457037E2,-3.2101025E2,-4.4927774E2,-3.9028323E2,-3.905556E2,-3.088029E2,-2.8744138E2,-1.5792023E2,-2.3137614E2,-1.6335892E2,-3.146114E2,-2.5597485E2,-9.821023E1,7.226585E1,-2.490138E2,-8.432655E1,-1.3288303E2,7.0344186E0,-2.1964883E2,-1.6775725E2,-3.9978317E1,1.1978491E2,-1.3226381E2,-7.553968E1,-1.7038713E2,-1.09558365E2,-6.0251614E1,3.877023E1,-7.136577E1,-9.189867E0,1.4828508E2,3.0815997E2,5.3757782E1,2.3060213E2,-1.4282661E2,-6.859291E0,1.5044948E2,2.1024417E2,6.6364884E0,1.6287773E2,1.6094151E2,2.591246E2,7.882996E1,2.053903E2,9.733942E1,1.857863E2,3.6528735E2,5.339655E2,2.799026E2,3.63811E2,1.4145744E2,3.1560596E2,4.1974374E2,4.7888156E2,4.8048087E2,5.7921234E2,4.742884E2,3.1887103E2,5.846282E2,6.849022E2,4.2907248E2,8.2083563E2],"categories":[],"categories_nodes":[],"categories_segments":[],"categories_sizes":[],"default_left":[0,0,0,0,0,0,0,0,0,0,0,0,0,0,0,0,0,0,0,0,0,0,0,0,0,0,0,0,0,0,0,0,0,0,0,0,0,0,0,0,0,0,0,0,0,0,0,0,0,0,0,0,0,0,0,0,0,0,0,0,0,0,0,0,0,0,0,0,0,0,0,0,0,0,0,0,0,0,0,0,0,0,0,0,0,0,0,0,0,0,0,0,0,0,0,0,0,0,0,0,0,0,0,0,0,0,0,0,0,0,0,0,0,0,0,0,0,0,0,0,0,0,0,0,0],"id":9,"left_children":[1,3,5,7,9,11,13,15,17,19,21,23,25,27,29,31,33,35,37,39,41,43,45,47,49,51,53,55,57,59,61,63,65,67,69,71,73,75,77,79,81,83,85,87,89,91,93,95,97,99,101,103,105,107,109,111,113,115,117,119,-1,121,123,-1,-1,-1,-1,-1,-1,-1,-1,-1,-1,-1,-1,-1,-1,-1,-1,-1,-1,-1,-1,-1,-1,-1,-1,-1,-1,-1,-1,-1,-1,-1,-1,-1,-1,-1,-1,-1,-1,-1,-1,-1,-1,-1,-1,-1,-1,-1,-1,-1,-1,-1,-1,-1,-1,-1,-1,-1,-1,-1,-1,-1,-1],"loss_changes":[2.4409722E12,3.4895364E11,4.70233E11,4.637773E10,9.889351E10,7.933854E10,8.652482E10,7.265911E9,2.7278574E10,4.003152E10,2.9848498E10,7.059579E10,1.2075483E10,2.6229146E10,1.3789561E10,3.4783887E9,9.065153E9,7.4491494E9,1.6791429E10,1.1511546E10,1.234108E10,7.165264E9,8.981823E9,1.622163E10,3.2196526E10,2.1709496E9,3.502293E9,2.1258109E10,9.21813E8,5.2515635E9,3.1823299E9,1.7385062E9,1.2046828E9,1.6015278E9,2.6001428E9,1.604055E9,5.9365786E9,6.13794E9,1.9772498E9,3.688358E9,3.1905546E9,5.2502344E9,3.8837166E9,3.6704768E8,3.1123313E9,1.8721005E8,6.2321623E9,6.2747525E9,7.9061535E9,6.729302E9,1.6001205E10,1.312596E9,4.801253E8,4.546797E7,3.0183424E9,9.33557E9,1.0528899E10,4.8666624E7,5.3692006E8,8.941109E9,0E0,1.6626483E9,1.4106952E9,0E0,0E0,0E0,0E0,0E0,0E0,0E0,0E0,0E0,0E0,0E0,0E0,0E0,0E0,0E0,0E0,0E0,0E0,0E0,0E0,0E0,0E0,0E0,0E0,0E0,0E0,0E0,0E0,0E0,0E0,0E0,0E0,0E0,0E0,0E0,0E0,0E0,0E0,0E0,0E0,0E0,0E0,0E0,0E0,0E0,0E0,0E0,0E0,0E0,0E0,0E0,0E0,0E0,0E0,0E0,0E0,0E0,0E0,0E0,0E0,0E0,0E0],"parents":[2147483647,0,0,1,1,2,2,3,3,4,4,5,5,6,6,7,7,8,8,9,9,10,10,11,11,12,12,13,13,14,14,15,15,16,16,17,17,18,18,19,19,20,20,21,21,22,22,23,23,24,24,25,25,26,26,27,27,28,28,29,29,30,30,31,31,32,32,33,33,34,34,35,35,36,36,37,37,38,38,39,39,40,40,41,41,42,42,43,43,44,44,45,45,46,46,47,47,48,48,49,49,50,50,51,51,52,52,53,53,54,54,55,55,56,56,57,57,58,58,59,59,61,61,62,62],"right_children":[2,4,6,8,10,12,14,16,18,20,22,24,26,28,30,32,34,36,38,40,42,44,46,48,50,52,54,56,58,60,62,64,66,68,70,72,74,76,78,80,82,84,86,88,90,92,94,96,98,100,102,104,106,108,110,112,114,116,118,120,-1,122,124,-1,-1,-1,-1,-1,-1,-1,-1,-1,-1,-1,-1,-1,-1,-1,-1,-1,-1,-1,-1,-1,-1,-1,-1,-1,-1,-1,-1,-1,-1,-1,-1,-1,-1,-1,-1,-1,-1,-1,-1,-1,-1,-1,-1,-1,-1,-1,-1,-1,-1,-1,-1,-1,-1,-1,-1,-1,-1,-1,-1,-1,-1],"split_conditions":[3.3765E4,2.7203E4,4.1803E4,2.3446E4,6E0,6E0,4.7168E4,6E0,6E0,3.0611E4,3.1194E4,3.7472E4,3.6945E4,6E0,5.1349E4,4E0,1.3E1,1E0,2.7747E4,3E0,3E0,1.2E1,1.3E1,4E0,4E0,3.6419E4,1.4E1,4E0,4.1957E4,6E0,4E0,2.2224E4,2.131E4,2.8564E4,2.2926E4,2.5297E4,2.5101E4,2.9696E4,2.9944E4,1E0,2.9354E4,1E0,3.2373E4,2.9008E4,2.775E4,3.2288E4,3.5574E4,1E0,3.0193E4,3.9398E4,5E0,3.2623E4,3.7263E4,4.8214E4,4.4152E4,4.4151E4,5E0,4.0384E4,3.0613E4,4E0,6.952181E2,5.4255E4,6E0,-3.7457037E2,-3.2101025E2,-4.4927774E2,-3.9028323E2,-3.905556E2,-3.088029E2,-2.8744138E2,-1.5792023E2,-2.3137614E2,-1.6335892E2,-3.146114E2,-2.5597485E2,-9.821023E1,7.226585E1,-2.490138E2,-8.432655E1,-1.3288303E2,7.0344186E0,-2.1964883E2,-1.6775725E2,-3.9978317E1,1.1978491E2,-1.3226381E2,-7.553968E1,-1.7038713E2,-1.09558365E2,-6.0251614E1,3.877023E1,-7.136577E1,-9.189867E0,1.4828508E2,3.0815997E2,5.3757782E1,2.3060213E2,-1.4282661E2,-6.859291E0,1.5044948E2,2.1024417E2,6.6364884E0,1.6287773E2,1.6094151E2,2.591246E2,7.882996E1,2.053903E2,9.733942E1,1.857863E2,3.6528735E2,5.339655E2,2.799026E2,3.63811E2,1.4145744E2,3.1560596E2,4.1974374E2,4.7888156E2,4.8048087E2,5.7921234E2,4.742884E2,3.1887103E2,5.846282E2,6.849022E2,4.2907248E2,8.2083563E2],"split_indices":[1,1,1,1,3,3,1,3,3,1,62,1,63,3,1,3,0,3,27,3,3,0,0,3,3,40,0,3,63,3,3,1,18,40,63,1,1,62,60,2,17,2,17,1,62,17,62,2,21,1,3,62,17,44,46,1,3,63,49,3,0,1,3,0,0,0,0,0,0,0,0,0,0,0,0,0,0,0,0,0,0,0,0,0,0,0,0,0,0,0,0,0,0,0,0,0,0,0,0,0,0,0,0,0,0,0,0,0,0,0,0,0,0,0,0,0,0,0,0,0,0,0,0,0,0],"split_type":[0,0,0,0,0,0,0,0,0,0,0,0,0,0,0,0,0,0,0,0,0,0,0,0,0,0,0,0,0,0,0,0,0,0,0,0,0,0,0,0,0,0,0,0,0,0,0,0,0,0,0,0,0,0,0,0,0,0,0,0,0,0,0,0,0,0,0,0,0,0,0,0,0,0,0,0,0,0,0,0,0,0,0,0,0,0,0,0,0,0,0,0,0,0,0,0,0,0,0,0,0,0,0,0,0,0,0,0,0,0,0,0,0,0,0,0,0,0,0,0,0,0,0,0,0],"sum_hessian":[1.78152E5,9.6116E4,8.2036E4,4.182E4,5.4296E4,5.4228E4,2.7808E4,1.4677E4,2.7143E4,4.5146E4,9.15E3,4.8897E4,5.331E3,1.8812E4,8.996E3,1.0477E4,4.2E3,2.1894E4,5.249E3,2.2422E4,2.2724E4,4.609E3,4.541E3,2.2504E4,2.6393E4,2.684E3,2.647E3,1.753E4,1.282E3,6.242E3,2.754E3,6.266E3,4.211E3,2.521E3,1.679E3,3.504E3,1.839E4,2.832E3,2.417E3,1.0173E4,1.2249E4,1.0595E4,1.2129E4,1.027E3,3.582E3,5.02E2,4.039E3,1.4783E4,7.721E3,1.9124E4,7.269E3,2.297E3,3.87E2,1.23E2,2.524E3,1.332E4,4.21E3,4E2,8.82E2,6.023E3,2.19E2,2.352E3,4.02E2,3.374E3,2.892E3,1.338E3,2.873E3,1.44E3,1.081E3,6.14E2,1.065E3,1.816E3,1.688E3,7.013E3,1.1377E4,2.131E3,7.01E2,2.217E3,2E2,9.678E3,4.95E2,7.151E3,5.098E3,1.0054E4,5.41E2,6.442E3,5.687E3,5.75E2,4.52E2,1.185E3,2.397E3,2.98E2,2.04E2,3.29E3,7.49E2,1.4264E4,5.19E2,1.281E3,6.44E3,8.432E3,1.0692E4,4.775E3,2.494E3,4.24E2,1.873E3,2.85E2,1.02E2,1.05E2,1.8E1,2.217E3,3.07E2,6.772E3,6.548E3,2.985E3,1.225E3,1.51E2,2.49E2,2.27E2,6.55E2,4.869E3,1.154E3,1.746E3,6.06E2,3.77E2,2.5E1],"tree_param":{"num_deleted":"0","num_feature":"65","num_nodes":"125","size_leaf_vector":"1"}},{"base_weights":[-2.875174E0,-3.2328325E3,3.827837E3,-5.3610034E3,-1.662803E3,2.1895933E3,6.989974E3,-6.637799E3,-4.600355E3,-2.2491938E3,1.2353333E3,1.8102926E3,5.6928823E3,5.8362993E3,9.400705E3,-7.0454106E3,-5.5927524E3,-5.0604805E3,-2.6743896E3,-3.164503E3,-1.3425261E3,-2.8759644E2,3.1956873E3,7.53791E2,3.0214392E3,4.2722E3,7.1332017E3,5.529483E3,1.0022998E4,8.469871E3,1.0897026E4,-6.5766035E3,-7.737752E3,-6.73404E3,-3.8331104E3,-4.599018E3,-5.744153E3,-1.1100577E3,-4.494641E3,-2.623811E3,-4.0134465E3,-7.838364E2,-2.2869653E3,-2.6029255E3,3.5182233E2,2.550224E3,5.6715264E3,1.3615782E3,-4.3597235E2,3.6505762E3,1.3133734E3,4.6273315E3,2.1636362E3,2.064843E3,7.3686777E3,6.1143306E3,3.7008948E3,8.57858E3,1.0585161E4,8.306175E3,6.54987E2,1.1381184E4,8.266878E3,-3.5224948E2,-2.9874832E2,-4.1090756E2,-3.5468738E2,-3.878149E2,-3.0419458E2,-3.0516336E2,-1.590918E2,-2.5791916E2,-2.0691637E2,-3.2559665E2,-2.6422787E2,-8.953931E1,7.501913E1,-2.5851334E2,-1.7418279E2,-1.561745E2,-1.0257397E2,-3.0184772E2,-1.9081143E2,-4.5617397E1,1.1253501E2,-1.6372466E2,-7.420403E1,-1.588619E2,-9.480865E1,-4.852443E1,5.3658802E1,1.5116557E2,-1.5923146E1,1.3360435E2,3.1702356E2,3.5931805E1,1.04371765E2,-7.027915E1,3.1195593E1,1.6045047E2,2.1016736E2,1.3831588E1,1.6644933E2,1.72718E2,2.521011E2,4.7013397E1,1.5280746E2,8.788682E1,1.7781773E2,3.8219833E2,1.4822475E2,2.662741E2,3.4595844E2,1.3713664E2,3.0281284E2,3.8053186E2,4.4831387E2,5.355023E2,3.11208E2,4.4317307E2,2.9777905E2,5.331132E2,6.2111456E2,3.699072E2,6.5491846E2],"categories":[],"categories_nodes":[],"categories_segments":[],"categories_sizes":[],"default_left":[0,0,0,0,0,0,0,0,0,0,0,0,0,0,0,0,0,0,0,0,0,0,0,0,0,0,0,0,0,0,0,0,0,0,0,0,0,0,0,0,0,0,0,0,0,0,0,0,0,0,0,0,0,0,0,0,0,0,0,0,0,0,0,0,0,0,0,0,0,0,0,0,0,0,0,0,0,0,0,0,0,0,0,0,0,0,0,0,0,0,0,0,0,0,0,0,0,0,0,0,0,0,0,0,0,0,0,0,0,0,0,0,0,0,0,0,0,0,0,0,0,0,0,0,0],"id":10,"left_children":[1,3,5,7,9,11,13,15,17,19,21,23,25,27,29,31,33,35,37,39,41,43,45,47,49,51,53,55,57,59,61,63,65,67,69,71,73,75,77,79,81,83,85,87,89,91,93,95,97,99,101,103,105,107,109,111,113,115,117,119,-1,121,123,-1,-1,-1,-1,-1,-1,-1,-1,-1,-1,-1,-1,-1,-1,-1,-1,-1,-1,-1,-1,-1,-1,-1,-1,-1,-1,-1,-1,-1,-1,-1,-1,-1,-1,-1,-1,-1,-1,-1,-1,-1,-1,-1,-1,-1,-1,-1,-1,-1,-1,-1,-1,-1,-1,-1,-1,-1,-1,-1,-1,-1,-1],"loss_changes":[2.2054442E12,3.231141E11,4.2239053E11,3.9841694E10,9.4580064E10,7.136485E10,7.733746E10,6.488654E9,2.2788964E10,3.8408454E10,2.7962937E10,6.2016324E10,1.0706125E10,2.412367E10,1.2450136E10,3.5262628E9,8.619729E9,6.525649E9,1.4129889E10,1.0562011E10,1.2268671E10,7.8059264E9,6.5296015E9,1.8720805E10,2.426092E10,1.9698647E9,3.0925947E9,1.8735432E10,9.517957E8,4.1020293E9,4.2991944E9,1.8115789E9,1.3165855E9,1.6874619E9,2.488111E9,3.1750717E9,2.917335E9,4.7490565E9,1.5489024E9,4.0185037E9,3.552641E9,5.700726E9,6.8479263E9,4.5710387E8,3.9423657E9,4.4116705E9,1.6805233E9,7.99513E9,8.997145E9,4.0143913E9,1.2704274E10,1.0828636E9,4.1531354E8,4.734109E7,2.99384E9,8.3996836E9,9.581638E9,6.873702E7,4.343972E8,6.9803704E9,0E0,2.0463288E9,2.1696266E9,0E0,0E0,0E0,0E0,0E0,0E0,0E0,0E0,0E0,0E0,0E0,0E0,0E0,0E0,0E0,0E0,0E0,0E0,0E0,0E0,0E0,0E0,0E0,0E0,0E0,0E0,0E0,0E0,0E0,0E0,0E0,0E0,0E0,0E0,0E0,0E0,0E0,0E0,0E0,0E0,0E0,0E0,0E0,0E0,0E0,0E0,0E0,0E0,0E0,0E0,0E0,0E0,0E0,0E0,0E0,0E0,0E0,0E0,0E0,0E0,0E0,0E0],"parents":[2147483647,0,0,1,1,2,2,3,3,4,4,5,5,6,6,7,7,8,8,9,9,10,10,11,11,12,12,13,13,14,14,15,15,16,16,17,17,18,18,19,19,20,20,21,21,22,22,23,23,24,24,25,25,26,26,27,27,28,28,29,29,30,30,31,31,32,32,33,33,34,34,35,35,36,36,37,37,38,38,39,39,40,40,41,41,42,42,43,43,44,44,45,45,46,46,47,47,48,48,49,49,50,50,51,51,52,52,53,53,54,54,55,55,56,56,57,57,58,58,59,59,61,61,62,62],"right_children":[2,4,6,8,10,12,14,16,18,20,22,24,26,28,30,32,34,36,38,40,42,44,46,48,50,52,54,56,58,60,62,64,66,68,70,72,74,76,78,80,82,84,86,88,90,92,94,96,98,100,102,104,106,108,110,112,114,116,118,120,-1,122,124,-1,-1,-1,-1,-1,-1,-1,-1,-1,-1,-1,-1,-1,-1,-1,-1,-1,-1,-1,-1,-1,-1,-1,-1,-1,-1,-1,-1,-1,-1,-1,-1,-1,-1,-1,-1,-1,-1,-1,-1,-1,-1,-1,-1,-1,-1,-1,-1,-1,-1,-1,-1,-1,-1,-1,-1,-1,-1,-1,-1,-1,-1],"split_conditions":[3.3857E4,2.7107E4,4.1803E4,2.3564E4,6E0,6E0,4.7168E4,6E0,6E0,3.0611E4,3.1752E4,3.8085E4,3.6945E4,6E0,5.0696E4,4E0,1.3E1,4E0,2.8108E4,4E0,4E0,1.2E1,3.5472E4,4E0,4E0,3.6419E4,1.4E1,4E0,4.1803E4,6E0,4E0,2.2378E4,2.2383E4,2.1889E4,2.2056E4,2.5297E4,2.5101E4,3.0279E4,2.5665E4,2.9093E4,2.5297E4,1E0,5E0,2.9093E4,2.82E4,3.5679E4,3.1192E4,3.609E4,5E0,4.0083E4,5E0,3.3772E4,1.2E1,4.8214E4,3.55E2,4.4151E4,5E0,4.0924E4,3.55E2,4E0,6.54987E2,5.2864E4,5E0,-3.5224948E2,-2.9874832E2,-4.1090756E2,-3.5468738E2,-3.878149E2,-3.0419458E2,-3.0516336E2,-1.590918E2,-2.5791916E2,-2.0691637E2,-3.2559665E2,-2.6422787E2,-8.953931E1,7.501913E1,-2.5851334E2,-1.7418279E2,-1.561745E2,-1.0257397E2,-3.0184772E2,-1.9081143E2,-4.5617397E1,1.1253501E2,-1.6372466E2,-7.420403E1,-1.588619E2,-9.480865E1,-4.852443E1,5.3658802E1,1.5116557E2,-1.5923146E1,1.3360435E2,3.1702356E2,3.5931805E1,1.04371765E2,-7.027915E1,3.1195593E1,1.6045047E2,2.1016736E2,1.3831588E1,1.6644933E2,1.72718E2,2.521011E2,4.7013397E1,1.5280746E2,8.788682E1,1.7781773E2,3.8219833E2,1.4822475E2,2.662741E2,3.4595844E2,1.3713664E2,3.0281284E2,3.8053186E2,4.4831387E2,5.355023E2,3.11208E2,4.4317307E2,2.9777905E2,5.331132E2,6.2111456E2,3.699072E2,6.5491846E2],"split_indices":[1,1,1,1,3,3,1,3,3,1,62,1,63,3,1,3,0,3,28,3,3,0,62,3,3,40,0,3,63,3,3,1,17,62,63,1,17,62,1,1,19,2,3,1,62,30,41,1,3,1,3,63,0,44,13,1,3,64,13,3,0,1,3,0,0,0,0,0,0,0,0,0,0,0,0,0,0,0,0,0,0,0,0,0,0,0,0,0,0,0,0,0,0,0,0,0,0,0,0,0,0,0,0,0,0,0,0,0,0,0,0,0,0,0,0,0,0,0,0,0,0,0,0,0,0],"split_type":[0,0,0,0,0,0,0,0,0,0,0,0,0,0,0,0,0,0,0,0,0,0,0,0,0,0,0,0,0,0,0,0,0,0,0,0,0,0,0,0,0,0,0,0,0,0,0,0,0,0,0,0,0,0,0,0,0,0,0,0,0,0,0,0,0,0,0,0,0,0,0,0,0,0,0,0,0,0,0,0,0,0,0,0,0,0,0,0,0,0,0,0,0,0,0,0,0,0,0,0,0,0,0,0,0,0,0,0,0,0,0,0,0,0,0,0,0,0,0,0,0,0,0,0,0],"sum_hessian":[1.78244E5,9.6705E4,8.1539E4,4.1054E4,5.5651E4,5.3713E4,2.7826E4,1.5324E4,2.573E4,4.6286E4,9.365E3,4.8467E4,5.246E3,1.8822E4,9.004E3,1.102E4,4.304E3,2.0767E4,4.963E3,2.3032E4,2.3254E4,5.271E3,4.094E3,2.5887E4,2.258E4,2.643E3,2.603E3,1.7539E4,1.283E3,5.555E3,3.449E3,6.577E3,4.443E3,2.609E3,1.695E3,1.2403E4,8.364E3,2.67E3,2.293E3,1.4073E4,8.959E3,1.4612E4,8.642E3,1.14E3,4.131E3,3.249E3,8.45E2,1.7134E4,8.753E3,1.6501E4,6.079E3,2.261E3,3.82E2,1.16E2,2.487E3,1.3287E4,4.252E3,3.64E2,9.19E2,5.368E3,1.87E2,2.91E3,5.39E2,3.692E3,2.885E3,2.538E3,1.905E3,1.01E3,1.599E3,3.76E2,1.319E3,5.597E3,6.806E3,3.127E3,5.237E3,2.118E3,5.52E2,1.372E3,9.21E2,7.511E3,6.562E3,7.93E2,8.166E3,1.4019E4,5.93E2,3.874E3,4.768E3,6.27E2,5.13E2,1.458E3,2.673E3,2.789E3,4.6E2,1.55E2,6.9E2,9.087E3,8.047E3,4.571E3,4.182E3,9.177E3,7.324E3,4.015E3,2.064E3,5.93E2,1.668E3,1.62E2,2.2E2,9.8E1,1.8E1,2.34E3,1.47E2,6.714E3,6.573E3,3.024E3,1.228E3,1.1E2,2.54E2,8.92E2,2.7E1,4.337E3,1.031E3,1.728E3,1.182E3,4.59E2,8E1],"tree_param":{"num_deleted":"0","num_feature":"65","num_nodes":"125","size_leaf_vector":"1"}},{"base_weights":[-3.497569E-1,-3.2427146E3,3.449127E3,-5.0886235E3,-1.747065E3,1.8133677E3,6.4218315E3,-6.3435093E3,-4.396298E3,-2.601562E3,-9.602624E2,8.1285333E2,2.8101948E3,5.1780884E3,8.5871E3,-6.6674087E3,-5.100314E3,-3.4911824E3,-4.730472E3,-3.053619E3,-1.7682522E3,-1.5192996E3,1.373538E2,3.4582993E2,1.9713627E3,2.474631E3,4.465501E3,4.838565E3,7.265857E3,7.794809E3,1.0321713E4,-7.322064E3,-6.2309233E3,-6.17201E3,-4.5071963E3,-4.3797666E3,-3.0338276E3,-5.225797E3,-4.219843E3,-3.5276755E3,-2.6333376E3,-1.2524688E3,-2.9868657E3,-1.6323801E3,1.4629248E3,5.2835724E2,-1.3553352E3,2.2419618E2,3.2781677E3,2.6375032E3,5.469942E2,1.9884153E3,3.1621504E3,5.312688E3,3.237798E3,4.250142E3,5.7227197E3,8.1123574E3,5.976092E3,7.5812153E3,1.0201427E4,9.874788E3,1.2145233E4,-4.0035422E2,-3.5456763E2,-3.236448E2,-2.9653055E2,-3.250281E2,-2.067075E2,-2.0397325E2,-3.0725986E2,-2.4522073E2,-5.0961666E1,-1.3464311E2,-2.2822212E2,-2.7247473E2,-2.4611324E2,-1.703232E2,-2.1589311E2,-1.802567E2,-8.306152E1,-1.364969E2,-1.624418E1,-4.9545715E1,-1.7797691E2,-1.7466524E2,-1.224894E2,-1.013258E2,-5.9146606E1,1.0510943E2,-5.184895E1,5.2109066E1,-6.626522E1,-1.709422E2,-2.7004942E1,-1.3366547E1,3.8148876E1,1.8451833E2,4.27446E1,1.7176794E2,7.547876E1,-7.242452E1,6.0332855E1,1.3970071E2,8.961066E1,2.0210551E2,1.4771574E2,2.8498773E2,1.5077623E2,4.6645702E1,1.8317636E2,2.502111E2,2.0310738E2,3.2787018E2,2.7450226E2,3.5521994E2,4.6509628E2,1.5876906E2,3.236489E2,3.6109958E2,4.254443E2,5.735146E2,4.3476495E2,4.8022598E2,5.329618E2,5.879785E2,6.4534656E2],"categories":[],"categories_nodes":[],"categories_segments":[],"categories_sizes":[],"default_left":[0,0,0,0,0,0,0,0,0,0,0,0,0,0,0,0,0,0,0,0,0,0,0,0,0,0,0,0,0,0,0,0,0,0,0,0,0,0,0,0,0,0,0,0,0,0,0,0,0,0,0,0,0,0,0,0,0,0,0,0,0,0,0,0,0,0,0,0,0,0,0,0,0,0,0,0,0,0,0,0,0,0,0,0,0,0,0,0,0,0,0,0,0,0,0,0,0,0,0,0,0,0,0,0,0,0,0,0,0,0,0,0,0,0,0,0,0,0,0,0,0,0,0,0,0,0,0],"id":11,"left_children":[1,3,5,7,9,11,13,15,17,19,21,23,25,27,29,31,33,35,37,39,41,43,45,47,49,51,53,55,57,59,61,63,65,67,69,71,73,75,77,79,81,83,85,87,89,91,93,95,97,99,101,103,105,107,109,111,113,115,117,119,121,123,125,-1,-1,-1,-1,-1,-1,-1,-1,-1,-1,-1,-1,-1,-1,-1,-1,-1,-1,-1,-1,-1,-1,-1,-1,-1,-1,-1,-1,-1,-1,-1,-1,-1,-1,-1,-1,-1,-1,-1,-1,-1,-1,-1,-1,-1,-1,-1,-1,-1,-1,-1,-1,-1,-1,-1,-1,-1,-1,-1,-1,-1,-1,-1,-1],"loss_changes":[1.9929705E12,2.5358185E11,4.1981805E11,3.5689726E10,3.411239E10,5.554358E10,8.248361E10,5.851054E9,7.998243E9,9.157542E9,1.6211122E10,1.5038913E10,1.5485174E10,1.3764002E10,1.5283061E10,3.2664453E9,1.8949898E9,2.8920545E9,4.8720773E9,3.1322767E9,5.374679E9,5.905289E9,5.204508E9,7.0656353E9,7.5759104E9,7.7484196E9,4.872282E9,8.688402E9,2.922283E9,3.8694748E9,2.7340964E9,6.751355E8,4.674519E8,6.9288346E8,1.3418496E9,4.2740326E9,2.4525824E9,6.39828E8,7.4532454E8,1.0648617E9,1.8638193E9,3.625468E9,6.8340326E8,2.985132E9,1.0249623E9,6.731435E9,3.1119933E9,5.0382464E9,7.849544E8,4.8913E9,3.353168E9,2.1431828E9,1.7452319E9,2.454659E9,1.8825585E9,1.4056489E9,1.263059E9,1.900331E9,1.4851891E9,2.2898934E9,1.0908631E9,4.950917E8,4.944691E7,0E0,0E0,0E0,0E0,0E0,0E0,0E0,0E0,0E0,0E0,0E0,0E0,0E0,0E0,0E0,0E0,0E0,0E0,0E0,0E0,0E0,0E0,0E0,0E0,0E0,0E0,0E0,0E0,0E0,0E0,0E0,0E0,0E0,0E0,0E0,0E0,0E0,0E0,0E0,0E0,0E0,0E0,0E0,0E0,0E0,0E0,0E0,0E0,0E0,0E0,0E0,0E0,0E0,0E0,0E0,0E0,0E0,0E0,0E0,0E0,0E0,0E0,0E0,0E0],"parents":[2147483647,0,0,1,1,2,2,3,3,4,4,5,5,6,6,7,7,8,8,9,9,10,10,11,11,12,12,13,13,14,14,15,15,16,16,17,17,18,18,19,19,20,20,21,21,22,22,23,23,24,24,25,25,26,26,27,27,28,28,29,29,30,30,31,31,32,32,33,33,34,34,35,35,36,36,37,37,38,38,39,39,40,40,41,41,42,42,43,43,44,44,45,45,46,46,47,47,48,48,49,49,50,50,51,51,52,52,53,53,54,54,55,55,56,56,57,57,58,58,59,59,60,60,61,61,62,62],"right_children":[2,4,6,8,10,12,14,16,18,20,22,24,26,28,30,32,34,36,38,40,42,44,46,48,50,52,54,56,58,60,62,64,66,68,70,72,74,76,78,80,82,84,86,88,90,92,94,96,98,100,102,104,106,108,110,112,114,116,118,120,122,124,126,-1,-1,-1,-1,-1,-1,-1,-1,-1,-1,-1,-1,-1,-1,-1,-1,-1,-1,-1,-1,-1,-1,-1,-1,-1,-1,-1,-1,-1,-1,-1,-1,-1,-1,-1,-1,-1,-1,-1,-1,-1,-1,-1,-1,-1,-1,-1,-1,-1,-1,-1,-1,-1,-1,-1,-1,-1,-1,-1,-1,-1,-1,-1,-1],"split_conditions":[3.325E4,2.7107E4,4.1281E4,2.3446E4,3.019E4,3.7162E4,4.6333E4,1.4E1,2.8019E4,1E0,1E0,1E0,1E0,1E0,5.0696E4,2.1515E4,1.53E2,1E0,2.5393E4,2.8652E4,3.3431E4,1E0,3.6839E4,1E0,3.9098E4,3.9583E4,4.1957E4,4.3973E4,4.6087E4,1E0,5.4255E4,1.9946E4,2.2657E4,2.8564E4,4.2E1,1E0,3.0781E4,2.4629E4,6.8E1,1E0,1E0,3.6318E4,2.8652E4,3.1824E4,3.4302E4,3.6735E4,2.839E4,3.5269E4,3.7166E4,3.3008E4,2.7661E4,3.5271E4,3.6945E4,3.9787E4,3.0527E4,3.9203E4,4.1957E4,4.305E4,2.3E1,4.909E4,5.0136E4,5.2864E4,5.2864E4,-4.0035422E2,-3.5456763E2,-3.236448E2,-2.9653055E2,-3.250281E2,-2.067075E2,-2.0397325E2,-3.0725986E2,-2.4522073E2,-5.0961666E1,-1.3464311E2,-2.2822212E2,-2.7247473E2,-2.4611324E2,-1.703232E2,-2.1589311E2,-1.802567E2,-8.306152E1,-1.364969E2,-1.624418E1,-4.9545715E1,-1.7797691E2,-1.7466524E2,-1.224894E2,-1.013258E2,-5.9146606E1,1.0510943E2,-5.184895E1,5.2109066E1,-6.626522E1,-1.709422E2,-2.7004942E1,-1.3366547E1,3.8148876E1,1.8451833E2,4.27446E1,1.7176794E2,7.547876E1,-7.242452E1,6.0332855E1,1.3970071E2,8.961066E1,2.0210551E2,1.4771574E2,2.8498773E2,1.5077623E2,4.6645702E1,1.8317636E2,2.502111E2,2.0310738E2,3.2787018E2,2.7450226E2,3.5521994E2,4.6509628E2,1.5876906E2,3.236489E2,3.6109958E2,4.254443E2,5.735146E2,4.3476495E2,4.8022598E2,5.329618E2,5.879785E2,6.4534656E2],"split_indices":[1,1,1,1,1,1,1,0,31,4,4,4,4,4,1,1,13,4,1,1,29,2,64,2,64,1,64,1,64,4,1,1,1,38,0,2,64,1,13,2,2,63,1,1,36,30,20,1,46,33,24,64,64,38,24,64,64,1,0,1,64,1,30,0,0,0,0,0,0,0,0,0,0,0,0,0,0,0,0,0,0,0,0,0,0,0,0,0,0,0,0,0,0,0,0,0,0,0,0,0,0,0,0,0,0,0,0,0,0,0,0,0,0,0,0,0,0,0,0,0,0,0,0,0,0,0,0],"split_type":[0,0,0,0,0,0,0,0,0,0,0,0,0,0,0,0,0,0,0,0,0,0,0,0,0,0,0,0,0,0,0,0,0,0,0,0,0,0,0,0,0,0,0,0,0,0,0,0,0,0,0,0,0,0,0,0,0,0,0,0,0,0,0,0,0,0,0,0,0,0,0,0,0,0,0,0,0,0,0,0,0,0,0,0,0,0,0,0,0,0,0,0,0,0,0,0,0,0,0,0,0,0,0,0,0,0,0,0,0,0,0,0,0,0,0,0,0,0,0,0,0,0,0,0,0,0,0],"sum_hessian":[1.78189E5,9.1852E4,8.6337E4,4.1111E4,5.0741E4,5.5693E4,3.0644E4,1.4614E4,2.6497E4,2.4323E4,2.6418E4,2.7796E4,2.7897E4,1.9466E4,1.1178E4,1.159E4,3.024E3,7.148E3,1.9349E4,1.5767E4,8.556E3,1.7503E4,8.915E3,1.9811E4,7.985E3,2.3197E4,4.7E3,1.6746E4,2.72E3,7.677E3,3.501E3,4.63E3,6.96E3,1.074E3,1.95E3,2.426E3,4.722E3,9.817E3,9.532E3,7.406E3,8.361E3,6.013E3,2.543E3,1.6864E4,6.39E2,7.065E3,1.85E3,1.9023E4,7.88E2,5.44E3,2.545E3,1.359E4,9.607E3,2.779E3,1.921E3,1.0058E4,6.688E3,1.639E3,1.081E3,7.055E3,6.22E2,2.817E3,6.84E2,1.158E3,3.472E3,3.843E3,3.117E3,9.23E2,1.51E2,1.549E3,4.01E2,2.098E3,3.28E2,3.864E3,8.58E2,5.642E3,4.175E3,1.029E3,8.503E3,7.11E3,2.96E2,8.025E3,3.36E2,5.402E3,6.11E2,1.306E3,1.237E3,8.983E3,7.881E3,5.09E2,1.3E2,5.532E3,1.533E3,5.23E2,1.327E3,9.948E3,9.075E3,6.73E2,1.15E2,3.185E3,2.255E3,6.32E2,1.913E3,2.659E3,1.0931E4,1.832E3,7.775E3,2.377E3,4.02E2,3E2,1.621E3,2.002E3,8.056E3,1.452E3,5.236E3,8.91E2,7.48E2,1.64E2,9.17E2,5.092E3,1.963E3,3.34E2,2.88E2,2.105E3,7.12E2,4.65E2,2.19E2],"tree_param":{"num_deleted":"0","num_feature":"65","num_nodes":"127","size_leaf_vector":"1"}},{"base_weights":[1.2131083E0,-2.9352832E3,3.4330188E3,-4.7531577E3,-1.4546506E3,2.1196348E3,6.6741343E3,-5.980471E3,-4.076399E3,-2.22964E3,-5.877668E2,1.1444019E3,3.2445442E3,5.6106016E3,8.635064E3,-6.28603E3,-4.8349746E3,-3.2172432E3,-4.407006E3,-2.6559905E3,-1.4247406E3,-1.1310592E3,4.8238126E2,7.1946295E2,2.3458706E3,2.9300317E3,4.951842E3,5.30582E3,7.7108394E3,7.9011587E3,1.011036E4,-6.948974E3,-5.869732E3,-5.865875E3,-4.2456865E3,-4.13983E3,-2.730001E3,-4.8880903E3,-3.8981416E3,-3.180297E3,-2.247037E3,-2.801362E3,-1.01732336E3,-1.2384036E3,1.4223807E3,1.026348E3,-8.657238E2,1.4710564E2,1.3115022E3,2.973327E3,1.1934568E3,2.3937466E3,3.549275E3,5.815902E3,3.7916064E3,4.7187407E3,6.112415E3,8.612936E3,6.42742E3,7.7311934E3,1.0320714E4,9.635128E3,1.1563946E4,-3.9601633E2,-3.4061874E2,-3.0642575E2,-2.7973364E2,-3.3686517E2,-2.610335E2,-1.9238014E2,-2.8872458E2,-2.3103238E2,-3.7434113E1,-1.5297081E2,-6.1411236E1,-2.5748105E2,-2.31427E2,-1.9539204E2,1.5699977E2,-1.6363567E2,-5.058187E1,-1.1660618E2,6.2379646E0,-1.6521513E2,-1.1850752E2,-3.9584667E1,-1.6044046E2,-8.293867E1,-3.820327E1,9.710347E1,-9.527754E1,8.436314E1,-3.6815716E1,-1.4782353E2,-1.6233812E1,8.5439885E-1,1.540785E2,6.2090656E1,2.0465468E2,1.8663493E2,9.480981E1,-7.908602E-1,1.1574337E2,1.6203311E2,1.0948566E2,2.1458524E2,1.6893672E2,2.426188E2,3.4014008E2,7.345176E1,2.0965356E2,2.8166437E2,2.2501309E2,3.4740683E2,2.9443997E2,3.8832315E2,4.9291476E2,1.5121257E2,3.385752E2,3.6600742E2,4.1983472E2,5.838694E2,4.4834518E2,5.15533E2,4.6943442E2,5.575001E2,6.1921796E2],"categories":[],"categories_nodes":[],"categories_segments":[],"categories_sizes":[],"default_left":[0,0,0,0,0,0,0,0,0,0,0,0,0,0,0,0,0,0,0,0,0,0,0,0,0,0,0,0,0,0,0,0,0,0,0,0,0,0,0,0,0,0,0,0,0,0,0,0,0,0,0,0,0,0,0,0,0,0,0,0,0,0,0,0,0,0,0,0,0,0,0,0,0,0,0,0,0,0,0,0,0,0,0,0,0,0,0,0,0,0,0,0,0,0,0,0,0,0,0,0,0,0,0,0,0,0,0,0,0,0,0,0,0,0,0,0,0,0,0,0,0,0,0,0,0,0,0],"id":12,"left_children":[1,3,5,7,9,11,13,15,17,19,21,23,25,27,29,31,33,35,37,39,41,43,45,47,49,51,53,55,57,59,61,63,65,67,69,71,73,75,77,79,81,83,85,87,89,91,93,95,97,99,101,103,105,107,109,111,113,115,117,119,121,123,125,-1,-1,-1,-1,-1,-1,-1,-1,-1,-1,-1,-1,-1,-1,-1,-1,-1,-1,-1,-1,-1,-1,-1,-1,-1,-1,-1,-1,-1,-1,-1,-1,-1,-1,-1,-1,-1,-1,-1,-1,-1,-1,-1,-1,-1,-1,-1,-1,-1,-1,-1,-1,-1,-1,-1,-1,-1,-1,-1,-1,-1,-1,-1,-1],"loss_changes":[1.7985388E12,2.5886084E11,3.5030165E11,3.583325E10,3.560947E10,6.424494E10,4.9442914E10,5.3395784E9,7.890698E9,9.600156E9,1.4547836E10,1.6014803E10,1.4588281E10,9.809822E9,8.953332E9,3.3007862E9,1.9403407E9,3.4666578E9,4.900094E9,3.9153992E9,5.433561E9,4.5506826E9,6.179879E9,7.853183E9,5.922894E9,7.618642E9,4.2175775E9,6.336381E9,2.199978E9,2.213249E9,1.8006999E9,5.65035E8,4.9558323E8,6.2491034E8,1.2327035E9,4.3532943E9,2.5024348E9,6.7701965E8,6.792151E8,1.6028385E9,2.0750787E9,4.7210906E8,3.6965524E9,3.1745352E9,1.1624577E9,6.9957197E9,2.739922E9,4.4963046E9,2.203216E9,4.332921E9,3.9205007E9,2.120237E9,1.334829E9,2.270077E9,1.6796774E9,1.5299707E9,1.01666E9,1.1262362E9,9.256714E8,1.3648527E9,5.62004E8,2.5146163E8,9.182413E7,0E0,0E0,0E0,0E0,0E0,0E0,0E0,0E0,0E0,0E0,0E0,0E0,0E0,0E0,0E0,0E0,0E0,0E0,0E0,0E0,0E0,0E0,0E0,0E0,0E0,0E0,0E0,0E0,0E0,0E0,0E0,0E0,0E0,0E0,0E0,0E0,0E0,0E0,0E0,0E0,0E0,0E0,0E0,0E0,0E0,0E0,0E0,0E0,0E0,0E0,0E0,0E0,0E0,0E0,0E0,0E0,0E0,0E0,0E0,0E0,0E0,0E0,0E0,0E0],"parents":[2147483647,0,0,1,1,2,2,3,3,4,4,5,5,6,6,7,7,8,8,9,9,10,10,11,11,12,12,13,13,14,14,15,15,16,16,17,17,18,18,19,19,20,20,21,21,22,22,23,23,24,24,25,25,26,26,27,27,28,28,29,29,30,30,31,31,32,32,33,33,34,34,35,35,36,36,37,37,38,38,39,39,40,40,41,41,42,42,43,43,44,44,45,45,46,46,47,47,48,48,49,49,50,50,51,51,52,52,53,53,54,54,55,55,56,56,57,57,58,58,59,59,60,60,61,61,62,62],"right_children":[2,4,6,8,10,12,14,16,18,20,22,24,26,28,30,32,34,36,38,40,42,44,46,48,50,52,54,56,58,60,62,64,66,68,70,72,74,76,78,80,82,84,86,88,90,92,94,96,98,100,102,104,106,108,110,112,114,116,118,120,122,124,126,-1,-1,-1,-1,-1,-1,-1,-1,-1,-1,-1,-1,-1,-1,-1,-1,-1,-1,-1,-1,-1,-1,-1,-1,-1,-1,-1,-1,-1,-1,-1,-1,-1,-1,-1,-1,-1,-1,-1,-1,-1,-1,-1,-1,-1,-1,-1,-1,-1,-1,-1,-1,-1,-1,-1,-1,-1,-1,-1,-1,-1,-1,-1,-1],"split_conditions":[3.3765E4,2.7385E4,4.2723E4,2.3564E4,3.0862E4,3.8292E4,4.7488E4,1.4E1,2.8019E4,1E0,1E0,1E0,1E0,1E0,5.1349E4,2.1515E4,6E0,1E0,2.5576E4,2.9008E4,1.3E1,1E0,3.6529E4,3.609E4,3.9491E4,4.0381E4,4.2884E4,4.5156E4,4.7171E4,1E0,5.4255E4,1.9373E4,2.2657E4,2.1886E4,4.3E1,1E0,3.2698E4,2.4629E4,4.4528E4,1E0,1E0,2.8748E4,3.6837E4,3.2381E4,3.7054E4,3.5079E4,2.7386E4,1E0,1E0,3.3008E4,3.6202E4,3.6421E4,3.7056E4,3.9885E4,3.0611E4,4.0598E4,4.2726E4,4.4531E4,3.547E4,4.9597E4,5.0696E4,5.0136E4,5.2864E4,-3.9601633E2,-3.4061874E2,-3.0642575E2,-2.7973364E2,-3.3686517E2,-2.610335E2,-1.9238014E2,-2.8872458E2,-2.3103238E2,-3.7434113E1,-1.5297081E2,-6.1411236E1,-2.5748105E2,-2.31427E2,-1.9539204E2,1.5699977E2,-1.6363567E2,-5.058187E1,-1.1660618E2,6.2379646E0,-1.6521513E2,-1.1850752E2,-3.9584667E1,-1.6044046E2,-8.293867E1,-3.820327E1,9.710347E1,-9.527754E1,8.436314E1,-3.6815716E1,-1.4782353E2,-1.6233812E1,8.5439885E-1,1.540785E2,6.2090656E1,2.0465468E2,1.8663493E2,9.480981E1,-7.908602E-1,1.1574337E2,1.6203311E2,1.0948566E2,2.1458524E2,1.6893672E2,2.426188E2,3.4014008E2,7.345176E1,2.0965356E2,2.8166437E2,2.2501309E2,3.4740683E2,2.9443997E2,3.8832315E2,4.9291476E2,1.5121257E2,3.385752E2,3.6600742E2,4.1983472E2,5.838694E2,4.4834518E2,5.15533E2,4.6943442E2,5.575001E2,6.1921796E2],"split_indices":[1,1,1,1,1,1,1,0,31,4,4,4,4,4,1,1,5,4,1,1,0,2,64,1,64,1,64,1,64,4,1,1,1,1,0,2,44,1,45,2,2,1,63,1,43,26,21,2,2,33,1,64,63,1,26,64,64,1,24,1,64,64,30,0,0,0,0,0,0,0,0,0,0,0,0,0,0,0,0,0,0,0,0,0,0,0,0,0,0,0,0,0,0,0,0,0,0,0,0,0,0,0,0,0,0,0,0,0,0,0,0,0,0,0,0,0,0,0,0,0,0,0,0,0,0,0,0],"split_type":[0,0,0,0,0,0,0,0,0,0,0,0,0,0,0,0,0,0,0,0,0,0,0,0,0,0,0,0,0,0,0,0,0,0,0,0,0,0,0,0,0,0,0,0,0,0,0,0,0,0,0,0,0,0,0,0,0,0,0,0,0,0,0,0,0,0,0,0,0,0,0,0,0,0,0,0,0,0,0,0,0,0,0,0,0,0,0,0,0,0,0,0,0,0,0,0,0,0,0,0,0,0,0,0,0,0,0,0,0,0,0,0,0,0,0,0,0,0,0,0,0,0,0,0,0,0,0],"sum_hessian":[1.78469E5,9.6175E4,8.2294E4,4.317E4,5.3005E4,5.8564E4,2.373E4,1.5341E4,2.7829E4,2.7985E4,2.502E4,3.137E4,2.7194E4,1.5388E4,8.342E3,1.2107E4,3.234E3,7.736E3,2.0093E4,1.8293E4,9.692E3,1.6595E4,8.425E3,2.3175E4,8.195E3,2.2966E4,4.228E3,1.3441E4,1.947E3,5.575E3,2.767E3,4.664E3,7.443E3,1.173E3,2.061E3,2.671E3,5.065E3,1.0324E4,9.769E3,8.013E3,1.028E4,2.212E3,7.48E3,1.5926E4,6.69E2,6.003E3,2.422E3,1.1784E4,1.1391E4,5.305E3,2.89E3,1.231E4,1.0656E4,2.421E3,1.807E3,7.783E3,5.658E3,1.14E3,8.07E2,5.213E3,3.62E2,2.091E3,6.76E2,5.68E2,4.096E3,3.824E3,3.619E3,4.95E2,6.78E2,1.638E3,4.23E2,2.339E3,3.32E2,4.153E3,9.12E2,5.133E3,5.191E3,9.756E3,1.3E1,7.685E3,3.28E2,9.924E3,3.56E2,1.018E3,1.194E3,6.783E3,6.97E2,8.442E3,7.484E3,5.79E2,9E1,4.366E3,1.637E3,4.97E2,1.925E3,1.1285E4,4.99E2,1.1114E4,2.77E2,3.11E3,2.195E3,1.391E3,1.499E3,2.387E3,9.923E3,1.986E3,8.67E3,1.228E3,1.193E3,2.67E2,1.54E3,1.496E3,6.287E3,1.188E3,4.47E3,6.83E2,4.57E2,7.5E1,7.32E2,3.23E3,1.983E3,1.77E2,1.85E2,5.48E2,1.543E3,4.59E2,2.17E2],"tree_param":{"num_deleted":"0","num_feature":"65","num_nodes":"127","size_leaf_vector":"1"}},{"base_weights":[1.9279648E0,-2.4725225E3,3.608858E3,-4.145608E3,-8.474505E2,2.398255E3,6.467397E3,-5.2401147E3,-3.3306277E3,-1.3707968E3,1.8759336E3,2.106952E3,5.5090283E3,5.698578E3,8.675145E3,-5.698739E3,-3.9809478E3,-3.7917134E3,-1.2424734E3,-2.0858047E3,-5.7410236E2,7.0763763E2,4.497659E3,2.7129448E3,6.264191E2,4.512527E3,7.5667417E3,5.4766514E3,9.161776E3,9.106494E3,6.692867E3,-5.176485E3,-6.500515E3,-5.538558E3,-2.2383784E3,-3.2442705E3,-4.5960205E3,-2.5115115E3,1.67197E3,-1.5004912E3,-3.083333E3,-1.5117078E0,-1.5381049E3,1.738195E3,-8.085296E2,3.7671714E3,6.9415674E3,1.6172892E3,3.4608018E3,-2.5305482E2,2.0310309E3,3.522614E3,5.3408164E3,7.1504424E3,1.0350768E4,5.9767046E3,3.7619375E3,8.151549E3,1.0461854E4,8.585704E3,1.0569538E4,5.645952E3,1.0681295E4,-2.9318167E2,-2.3179036E2,-3.5248605E2,-2.9622272E2,-3.1496747E2,-2.3888158E2,-1.9443404E2,-5.0168247E1,-1.1853705E2,-1.8214825E2,-2.5625113E2,-2.115203E2,-4.7208855E1,-1.8415616E2,-6.793239E1,1.17800186E2,-2.2665165E1,-8.907537E1,-1.9137465E2,-1.2151409E2,7.459676E1,-1.1112039E1,-1.2504282E2,-3.9410557E1,-8.152216E0,1.21818726E2,-7.40472E1,1.38884735E1,1.8387796E1,2.0000415E2,3.6469864E2,-6.4760025E1,9.983538E1,2.8319208E1,1.503046E2,2.0395609E2,-4.8922695E1,4.6229992E1,5.1944973E1,1.6251514E2,1.99596E2,1.1305538E2,7.1634056E1,2.8083862E2,3.6507596E2,1.151547E2,2.5579216E2,5.3770795E2,2.690848E2,3.4241312E2,1.14612915E2,2.472207E2,3.6470456E2,4.4458957E2,5.0581274E2,5.9910724E2,4.4562744E2,3.801381E2,4.9888385E2,5.554431E2,2.0950757E2,3.3849768E2,4.3307974E2,6.175015E2],"categories":[],"categories_nodes":[],"categories_segments":[],"categories_sizes":[],"default_left":[0,0,0,0,0,0,0,0,0,0,0,0,0,0,0,0,0,0,0,0,0,0,0,0,0,0,0,0,0,0,0,0,0,0,0,0,0,0,0,0,0,0,0,0,0,0,0,0,0,0,0,0,0,0,0,0,0,0,0,0,0,0,0,0,0,0,0,0,0,0,0,0,0,0,0,0,0,0,0,0,0,0,0,0,0,0,0,0,0,0,0,0,0,0,0,0,0,0,0,0,0,0,0,0,0,0,0,0,0,0,0,0,0,0,0,0,0,0,0,0,0,0,0,0,0,0,0],"id":13,"left_children":[1,3,5,7,9,11,13,15,17,19,21,23,25,27,29,31,33,35,37,39,41,43,45,47,49,51,53,55,57,59,61,63,65,67,69,71,73,75,77,79,81,83,85,87,89,91,93,95,97,99,101,103,105,107,109,111,113,115,117,119,121,123,125,-1,-1,-1,-1,-1,-1,-1,-1,-1,-1,-1,-1,-1,-1,-1,-1,-1,-1,-1,-1,-1,-1,-1,-1,-1,-1,-1,-1,-1,-1,-1,-1,-1,-1,-1,-1,-1,-1,-1,-1,-1,-1,-1,-1,-1,-1,-1,-1,-1,-1,-1,-1,-1,-1,-1,-1,-1,-1,-1,-1,-1,-1,-1,-1],"loss_changes":[1.5934105E12,2.8789375E11,2.5136615E11,4.652099E10,7.656253E10,4.6232437E10,3.66322E10,1.2835553E10,2.8791243E10,2.5665774E10,2.6518915E10,4.1864905E10,8.924561E9,1.2271682E10,4.7103017E9,6.799622E9,1.6131932E10,1.0771857E10,2.0016996E10,1.3859865E10,1.1764323E10,9.362327E9,4.7386665E9,2.7125334E10,1.6744034E10,2.396713E9,1.5763866E9,1.2898402E10,1.1808113E9,3.3988936E9,4.1194086E9,3.6460626E9,1.9934904E9,1.7876664E9,5.721248E9,5.0691604E9,1.8967757E9,6.9194015E9,3.4071404E9,4.403632E9,4.2575544E9,4.408373E9,5.731846E9,4.7352545E9,1.7717363E9,1.6271852E9,1.7887908E9,5.3554463E9,5.5203267E9,7.122096E9,6.309933E9,7.872563E8,1.7196646E9,8.927273E8,3.3142784E8,6.0124365E9,5.90608E9,2.8234138E8,9.84105E7,1.0191012E9,2.715648E8,1.2725105E9,5.906903E8,0E0,0E0,0E0,0E0,0E0,0E0,0E0,0E0,0E0,0E0,0E0,0E0,0E0,0E0,0E0,0E0,0E0,0E0,0E0,0E0,0E0,0E0,0E0,0E0,0E0,0E0,0E0,0E0,0E0,0E0,0E0,0E0,0E0,0E0,0E0,0E0,0E0,0E0,0E0,0E0,0E0,0E0,0E0,0E0,0E0,0E0,0E0,0E0,0E0,0E0,0E0,0E0,0E0,0E0,0E0,0E0,0E0,0E0,0E0,0E0,0E0,0E0,0E0,0E0],"parents":[2147483647,0,0,1,1,2,2,3,3,4,4,5,5,6,6,7,7,8,8,9,9,10,10,11,11,12,12,13,13,14,14,15,15,16,16,17,17,18,18,19,19,20,20,21,21,22,22,23,23,24,24,25,25,26,26,27,27,28,28,29,29,30,30,31,31,32,32,33,33,34,34,35,35,36,36,37,37,38,38,39,39,40,40,41,41,42,42,43,43,44,44,45,45,46,46,47,47,48,48,49,49,50,50,51,51,52,52,53,53,54,54,55,55,56,56,57,57,58,58,59,59,60,60,61,61,62,62],"right_children":[2,4,6,8,10,12,14,16,18,20,22,24,26,28,30,32,34,36,38,40,42,44,46,48,50,52,54,56,58,60,62,64,66,68,70,72,74,76,78,80,82,84,86,88,90,92,94,96,98,100,102,104,106,108,110,112,114,116,118,120,122,124,126,-1,-1,-1,-1,-1,-1,-1,-1,-1,-1,-1,-1,-1,-1,-1,-1,-1,-1,-1,-1,-1,-1,-1,-1,-1,-1,-1,-1,-1,-1,-1,-1,-1,-1,-1,-1,-1,-1,-1,-1,-1,-1,-1,-1,-1,-1,-1,-1,-1,-1,-1,-1,-1,-1,-1,-1,-1,-1,-1,-1,-1,-1,-1,-1],"split_conditions":[3.5079E4,2.8562E4,4.3228E4,2.4628E4,6E0,6E0,4.909E4,6E0,6E0,3.1978E4,3.3772E4,4E0,3.9399E4,6E0,4E0,4E0,1.3E1,4E0,2.9526E4,4E0,4E0,3.0022E4,3.8197E4,3.8396E4,5E0,3.6318E4,